FANN_FLO_2.1
num_layers=5
learning_rate=0,700000
connection_rate=1,000000
network_type=1
learning_momentum=0,000000
training_algorithm=2
train_error_function=1
train_stop_function=0
cascade_output_change_fraction=0,010000
quickprop_decay=-0,000100
quickprop_mu=1,750000
rprop_increase_factor=1,200000
rprop_decrease_factor=0,500000
rprop_delta_min=0,000000
rprop_delta_max=50,000000
rprop_delta_zero=0,100000
cascade_output_stagnation_epochs=12
cascade_candidate_change_fraction=0,010000
cascade_candidate_stagnation_epochs=12
cascade_max_out_epochs=150
cascade_min_out_epochs=50
cascade_max_cand_epochs=150
cascade_min_cand_epochs=50
cascade_num_candidate_groups=2
bit_fail_limit=3,49999999999999977796e-01
cascade_candidate_limit=1,00000000000000000000e+03
cascade_weight_multiplier=4,00000000000000022204e-01
cascade_activation_functions_count=10
cascade_activation_functions=3 5 7 8 10 11 14 15 16 17 
cascade_activation_steepnesses_count=4
cascade_activation_steepnesses=2,50000000000000000000e-01 5,00000000000000000000e-01 7,50000000000000000000e-01 1,00000000000000000000e+00 
layer_sizes=101 300 100 20 2 
scale_included=0
neurons (num_inputs, activation_function, activation_steepness)=(0, 0, 0,00000000000000000000e+00) (0, 0, 0,00000000000000000000e+00) (0, 0, 0,00000000000000000000e+00) (0, 0, 0,00000000000000000000e+00) (0, 0, 0,00000000000000000000e+00) (0, 0, 0,00000000000000000000e+00) (0, 0, 0,00000000000000000000e+00) (0, 0, 0,00000000000000000000e+00) (0, 0, 0,00000000000000000000e+00) (0, 0, 0,00000000000000000000e+00) (0, 0, 0,00000000000000000000e+00) (0, 0, 0,00000000000000000000e+00) (0, 0, 0,00000000000000000000e+00) (0, 0, 0,00000000000000000000e+00) (0, 0, 0,00000000000000000000e+00) (0, 0, 0,00000000000000000000e+00) (0, 0, 0,00000000000000000000e+00) (0, 0, 0,00000000000000000000e+00) (0, 0, 0,00000000000000000000e+00) (0, 0, 0,00000000000000000000e+00) (0, 0, 0,00000000000000000000e+00) (0, 0, 0,00000000000000000000e+00) (0, 0, 0,00000000000000000000e+00) (0, 0, 0,00000000000000000000e+00) (0, 0, 0,00000000000000000000e+00) (0, 0, 0,00000000000000000000e+00) (0, 0, 0,00000000000000000000e+00) (0, 0, 0,00000000000000000000e+00) (0, 0, 0,00000000000000000000e+00) (0, 0, 0,00000000000000000000e+00) (0, 0, 0,00000000000000000000e+00) (0, 0, 0,00000000000000000000e+00) (0, 0, 0,00000000000000000000e+00) (0, 0, 0,00000000000000000000e+00) (0, 0, 0,00000000000000000000e+00) (0, 0, 0,00000000000000000000e+00) (0, 0, 0,00000000000000000000e+00) (0, 0, 0,00000000000000000000e+00) (0, 0, 0,00000000000000000000e+00) (0, 0, 0,00000000000000000000e+00) (0, 0, 0,00000000000000000000e+00) (0, 0, 0,00000000000000000000e+00) (0, 0, 0,00000000000000000000e+00) (0, 0, 0,00000000000000000000e+00) (0, 0, 0,00000000000000000000e+00) (0, 0, 0,00000000000000000000e+00) (0, 0, 0,00000000000000000000e+00) (0, 0, 0,00000000000000000000e+00) (0, 0, 0,00000000000000000000e+00) (0, 0, 0,00000000000000000000e+00) (0, 0, 0,00000000000000000000e+00) (0, 0, 0,00000000000000000000e+00) (0, 0, 0,00000000000000000000e+00) (0, 0, 0,00000000000000000000e+00) (0, 0, 0,00000000000000000000e+00) (0, 0, 0,00000000000000000000e+00) (0, 0, 0,00000000000000000000e+00) (0, 0, 0,00000000000000000000e+00) (0, 0, 0,00000000000000000000e+00) (0, 0, 0,00000000000000000000e+00) (0, 0, 0,00000000000000000000e+00) (0, 0, 0,00000000000000000000e+00) (0, 0, 0,00000000000000000000e+00) (0, 0, 0,00000000000000000000e+00) (0, 0, 0,00000000000000000000e+00) (0, 0, 0,00000000000000000000e+00) (0, 0, 0,00000000000000000000e+00) (0, 0, 0,00000000000000000000e+00) (0, 0, 0,00000000000000000000e+00) (0, 0, 0,00000000000000000000e+00) (0, 0, 0,00000000000000000000e+00) (0, 0, 0,00000000000000000000e+00) (0, 0, 0,00000000000000000000e+00) (0, 0, 0,00000000000000000000e+00) (0, 0, 0,00000000000000000000e+00) (0, 0, 0,00000000000000000000e+00) (0, 0, 0,00000000000000000000e+00) (0, 0, 0,00000000000000000000e+00) (0, 0, 0,00000000000000000000e+00) (0, 0, 0,00000000000000000000e+00) (0, 0, 0,00000000000000000000e+00) (0, 0, 0,00000000000000000000e+00) (0, 0, 0,00000000000000000000e+00) (0, 0, 0,00000000000000000000e+00) (0, 0, 0,00000000000000000000e+00) (0, 0, 0,00000000000000000000e+00) (0, 0, 0,00000000000000000000e+00) (0, 0, 0,00000000000000000000e+00) (0, 0, 0,00000000000000000000e+00) (0, 0, 0,00000000000000000000e+00) (0, 0, 0,00000000000000000000e+00) (0, 0, 0,00000000000000000000e+00) (0, 0, 0,00000000000000000000e+00) (0, 0, 0,00000000000000000000e+00) (0, 0, 0,00000000000000000000e+00) (0, 0, 0,00000000000000000000e+00) (0, 0, 0,00000000000000000000e+00) (0, 0, 0,00000000000000000000e+00) (0, 0, 0,00000000000000000000e+00) (0, 0, 0,00000000000000000000e+00) (0, 0, 0,00000000000000000000e+00) (101, 6, 1,00000000000000000000e+00) (101, 6, 1,00000000000000000000e+00) (101, 6, 1,00000000000000000000e+00) (101, 6, 1,00000000000000000000e+00) (101, 6, 1,00000000000000000000e+00) (101, 6, 1,00000000000000000000e+00) (101, 6, 1,00000000000000000000e+00) (101, 6, 1,00000000000000000000e+00) (101, 6, 1,00000000000000000000e+00) (101, 6, 1,00000000000000000000e+00) (101, 6, 1,00000000000000000000e+00) (101, 6, 1,00000000000000000000e+00) (101, 6, 1,00000000000000000000e+00) (101, 6, 1,00000000000000000000e+00) (101, 6, 1,00000000000000000000e+00) (101, 6, 1,00000000000000000000e+00) (101, 6, 1,00000000000000000000e+00) (101, 6, 1,00000000000000000000e+00) (101, 6, 1,00000000000000000000e+00) (101, 6, 1,00000000000000000000e+00) (101, 6, 1,00000000000000000000e+00) (101, 6, 1,00000000000000000000e+00) (101, 6, 1,00000000000000000000e+00) (101, 6, 1,00000000000000000000e+00) (101, 6, 1,00000000000000000000e+00) (101, 6, 1,00000000000000000000e+00) (101, 6, 1,00000000000000000000e+00) (101, 6, 1,00000000000000000000e+00) (101, 6, 1,00000000000000000000e+00) (101, 6, 1,00000000000000000000e+00) (101, 6, 1,00000000000000000000e+00) (101, 6, 1,00000000000000000000e+00) (101, 6, 1,00000000000000000000e+00) (101, 6, 1,00000000000000000000e+00) (101, 6, 1,00000000000000000000e+00) (101, 6, 1,00000000000000000000e+00) (101, 6, 1,00000000000000000000e+00) (101, 6, 1,00000000000000000000e+00) (101, 6, 1,00000000000000000000e+00) (101, 6, 1,00000000000000000000e+00) (101, 6, 1,00000000000000000000e+00) (101, 6, 1,00000000000000000000e+00) (101, 6, 1,00000000000000000000e+00) (101, 6, 1,00000000000000000000e+00) (101, 6, 1,00000000000000000000e+00) (101, 6, 1,00000000000000000000e+00) (101, 6, 1,00000000000000000000e+00) (101, 6, 1,00000000000000000000e+00) (101, 6, 1,00000000000000000000e+00) (101, 6, 1,00000000000000000000e+00) (101, 6, 1,00000000000000000000e+00) (101, 6, 1,00000000000000000000e+00) (101, 6, 1,00000000000000000000e+00) (101, 6, 1,00000000000000000000e+00) (101, 6, 1,00000000000000000000e+00) (101, 6, 1,00000000000000000000e+00) (101, 6, 1,00000000000000000000e+00) (101, 6, 1,00000000000000000000e+00) (101, 6, 1,00000000000000000000e+00) (101, 6, 1,00000000000000000000e+00) (101, 6, 1,00000000000000000000e+00) (101, 6, 1,00000000000000000000e+00) (101, 6, 1,00000000000000000000e+00) (101, 6, 1,00000000000000000000e+00) (101, 6, 1,00000000000000000000e+00) (101, 6, 1,00000000000000000000e+00) (101, 6, 1,00000000000000000000e+00) (101, 6, 1,00000000000000000000e+00) (101, 6, 1,00000000000000000000e+00) (101, 6, 1,00000000000000000000e+00) (101, 6, 1,00000000000000000000e+00) (101, 6, 1,00000000000000000000e+00) (101, 6, 1,00000000000000000000e+00) (101, 6, 1,00000000000000000000e+00) (101, 6, 1,00000000000000000000e+00) (101, 6, 1,00000000000000000000e+00) (101, 6, 1,00000000000000000000e+00) (101, 6, 1,00000000000000000000e+00) (101, 6, 1,00000000000000000000e+00) (101, 6, 1,00000000000000000000e+00) (101, 6, 1,00000000000000000000e+00) (101, 6, 1,00000000000000000000e+00) (101, 6, 1,00000000000000000000e+00) (101, 6, 1,00000000000000000000e+00) (101, 6, 1,00000000000000000000e+00) (101, 6, 1,00000000000000000000e+00) (101, 6, 1,00000000000000000000e+00) (101, 6, 1,00000000000000000000e+00) (101, 6, 1,00000000000000000000e+00) (101, 6, 1,00000000000000000000e+00) (101, 6, 1,00000000000000000000e+00) (101, 6, 1,00000000000000000000e+00) (101, 6, 1,00000000000000000000e+00) (101, 6, 1,00000000000000000000e+00) (101, 6, 1,00000000000000000000e+00) (101, 6, 1,00000000000000000000e+00) (101, 6, 1,00000000000000000000e+00) (101, 6, 1,00000000000000000000e+00) (101, 6, 1,00000000000000000000e+00) (101, 6, 1,00000000000000000000e+00) (101, 6, 1,00000000000000000000e+00) (101, 6, 1,00000000000000000000e+00) (101, 6, 1,00000000000000000000e+00) (101, 6, 1,00000000000000000000e+00) (101, 6, 1,00000000000000000000e+00) (101, 6, 1,00000000000000000000e+00) (101, 6, 1,00000000000000000000e+00) (101, 6, 1,00000000000000000000e+00) (101, 6, 1,00000000000000000000e+00) (101, 6, 1,00000000000000000000e+00) (101, 6, 1,00000000000000000000e+00) (101, 6, 1,00000000000000000000e+00) (101, 6, 1,00000000000000000000e+00) (101, 6, 1,00000000000000000000e+00) (101, 6, 1,00000000000000000000e+00) (101, 6, 1,00000000000000000000e+00) (101, 6, 1,00000000000000000000e+00) (101, 6, 1,00000000000000000000e+00) (101, 6, 1,00000000000000000000e+00) (101, 6, 1,00000000000000000000e+00) (101, 6, 1,00000000000000000000e+00) (101, 6, 1,00000000000000000000e+00) (101, 6, 1,00000000000000000000e+00) (101, 6, 1,00000000000000000000e+00) (101, 6, 1,00000000000000000000e+00) (101, 6, 1,00000000000000000000e+00) (101, 6, 1,00000000000000000000e+00) (101, 6, 1,00000000000000000000e+00) (101, 6, 1,00000000000000000000e+00) (101, 6, 1,00000000000000000000e+00) (101, 6, 1,00000000000000000000e+00) (101, 6, 1,00000000000000000000e+00) (101, 6, 1,00000000000000000000e+00) (101, 6, 1,00000000000000000000e+00) (101, 6, 1,00000000000000000000e+00) (101, 6, 1,00000000000000000000e+00) (101, 6, 1,00000000000000000000e+00) (101, 6, 1,00000000000000000000e+00) (101, 6, 1,00000000000000000000e+00) (101, 6, 1,00000000000000000000e+00) (101, 6, 1,00000000000000000000e+00) (101, 6, 1,00000000000000000000e+00) (101, 6, 1,00000000000000000000e+00) (101, 6, 1,00000000000000000000e+00) (101, 6, 1,00000000000000000000e+00) (101, 6, 1,00000000000000000000e+00) (101, 6, 1,00000000000000000000e+00) (101, 6, 1,00000000000000000000e+00) (101, 6, 1,00000000000000000000e+00) (101, 6, 1,00000000000000000000e+00) (101, 6, 1,00000000000000000000e+00) (101, 6, 1,00000000000000000000e+00) (101, 6, 1,00000000000000000000e+00) (101, 6, 1,00000000000000000000e+00) (101, 6, 1,00000000000000000000e+00) (101, 6, 1,00000000000000000000e+00) (101, 6, 1,00000000000000000000e+00) (101, 6, 1,00000000000000000000e+00) (101, 6, 1,00000000000000000000e+00) (101, 6, 1,00000000000000000000e+00) (101, 6, 1,00000000000000000000e+00) (101, 6, 1,00000000000000000000e+00) (101, 6, 1,00000000000000000000e+00) (101, 6, 1,00000000000000000000e+00) (101, 6, 1,00000000000000000000e+00) (101, 6, 1,00000000000000000000e+00) (101, 6, 1,00000000000000000000e+00) (101, 6, 1,00000000000000000000e+00) (101, 6, 1,00000000000000000000e+00) (101, 6, 1,00000000000000000000e+00) (101, 6, 1,00000000000000000000e+00) (101, 6, 1,00000000000000000000e+00) (101, 6, 1,00000000000000000000e+00) (101, 6, 1,00000000000000000000e+00) (101, 6, 1,00000000000000000000e+00) (101, 6, 1,00000000000000000000e+00) (101, 6, 1,00000000000000000000e+00) (101, 6, 1,00000000000000000000e+00) (101, 6, 1,00000000000000000000e+00) (101, 6, 1,00000000000000000000e+00) (101, 6, 1,00000000000000000000e+00) (101, 6, 1,00000000000000000000e+00) (101, 6, 1,00000000000000000000e+00) (101, 6, 1,00000000000000000000e+00) (101, 6, 1,00000000000000000000e+00) (101, 6, 1,00000000000000000000e+00) (101, 6, 1,00000000000000000000e+00) (101, 6, 1,00000000000000000000e+00) (101, 6, 1,00000000000000000000e+00) (101, 6, 1,00000000000000000000e+00) (101, 6, 1,00000000000000000000e+00) (101, 6, 1,00000000000000000000e+00) (101, 6, 1,00000000000000000000e+00) (101, 6, 1,00000000000000000000e+00) (101, 6, 1,00000000000000000000e+00) (101, 6, 1,00000000000000000000e+00) (101, 6, 1,00000000000000000000e+00) (101, 6, 1,00000000000000000000e+00) (101, 6, 1,00000000000000000000e+00) (101, 6, 1,00000000000000000000e+00) (101, 6, 1,00000000000000000000e+00) (101, 6, 1,00000000000000000000e+00) (101, 6, 1,00000000000000000000e+00) (101, 6, 1,00000000000000000000e+00) (101, 6, 1,00000000000000000000e+00) (101, 6, 1,00000000000000000000e+00) (101, 6, 1,00000000000000000000e+00) (101, 6, 1,00000000000000000000e+00) (101, 6, 1,00000000000000000000e+00) (101, 6, 1,00000000000000000000e+00) (101, 6, 1,00000000000000000000e+00) (101, 6, 1,00000000000000000000e+00) (101, 6, 1,00000000000000000000e+00) (101, 6, 1,00000000000000000000e+00) (101, 6, 1,00000000000000000000e+00) (101, 6, 1,00000000000000000000e+00) (101, 6, 1,00000000000000000000e+00) (101, 6, 1,00000000000000000000e+00) (101, 6, 1,00000000000000000000e+00) (101, 6, 1,00000000000000000000e+00) (101, 6, 1,00000000000000000000e+00) (101, 6, 1,00000000000000000000e+00) (101, 6, 1,00000000000000000000e+00) (101, 6, 1,00000000000000000000e+00) (101, 6, 1,00000000000000000000e+00) (101, 6, 1,00000000000000000000e+00) (101, 6, 1,00000000000000000000e+00) (101, 6, 1,00000000000000000000e+00) (101, 6, 1,00000000000000000000e+00) (101, 6, 1,00000000000000000000e+00) (101, 6, 1,00000000000000000000e+00) (101, 6, 1,00000000000000000000e+00) (101, 6, 1,00000000000000000000e+00) (101, 6, 1,00000000000000000000e+00) (101, 6, 1,00000000000000000000e+00) (101, 6, 1,00000000000000000000e+00) (101, 6, 1,00000000000000000000e+00) (101, 6, 1,00000000000000000000e+00) (101, 6, 1,00000000000000000000e+00) (101, 6, 1,00000000000000000000e+00) (101, 6, 1,00000000000000000000e+00) (101, 6, 1,00000000000000000000e+00) (101, 6, 1,00000000000000000000e+00) (101, 6, 1,00000000000000000000e+00) (101, 6, 1,00000000000000000000e+00) (101, 6, 1,00000000000000000000e+00) (101, 6, 1,00000000000000000000e+00) (101, 6, 1,00000000000000000000e+00) (101, 6, 1,00000000000000000000e+00) (101, 6, 1,00000000000000000000e+00) (101, 6, 1,00000000000000000000e+00) (101, 6, 1,00000000000000000000e+00) (101, 6, 1,00000000000000000000e+00) (101, 6, 1,00000000000000000000e+00) (101, 6, 1,00000000000000000000e+00) (101, 6, 1,00000000000000000000e+00) (101, 6, 1,00000000000000000000e+00) (101, 6, 1,00000000000000000000e+00) (101, 6, 1,00000000000000000000e+00) (101, 6, 1,00000000000000000000e+00) (101, 6, 1,00000000000000000000e+00) (101, 6, 1,00000000000000000000e+00) (101, 6, 1,00000000000000000000e+00) (101, 6, 1,00000000000000000000e+00) (101, 6, 1,00000000000000000000e+00) (101, 6, 1,00000000000000000000e+00) (101, 6, 1,00000000000000000000e+00) (101, 6, 1,00000000000000000000e+00) (101, 6, 1,00000000000000000000e+00) (101, 6, 1,00000000000000000000e+00) (101, 6, 1,00000000000000000000e+00) (101, 6, 1,00000000000000000000e+00) (101, 6, 1,00000000000000000000e+00) (101, 6, 1,00000000000000000000e+00) (101, 6, 1,00000000000000000000e+00) (101, 6, 1,00000000000000000000e+00) (101, 6, 1,00000000000000000000e+00) (101, 6, 1,00000000000000000000e+00) (101, 6, 1,00000000000000000000e+00) (101, 6, 1,00000000000000000000e+00) (101, 6, 1,00000000000000000000e+00) (101, 6, 1,00000000000000000000e+00) (101, 6, 1,00000000000000000000e+00) (101, 6, 1,00000000000000000000e+00) (101, 6, 1,00000000000000000000e+00) (101, 6, 1,00000000000000000000e+00) (101, 6, 1,00000000000000000000e+00) (101, 6, 1,00000000000000000000e+00) (101, 6, 1,00000000000000000000e+00) (101, 6, 1,00000000000000000000e+00) (101, 6, 1,00000000000000000000e+00) (101, 6, 1,00000000000000000000e+00) (101, 6, 1,00000000000000000000e+00) (101, 6, 1,00000000000000000000e+00) (101, 6, 1,00000000000000000000e+00) (101, 6, 1,00000000000000000000e+00) (101, 6, 1,00000000000000000000e+00) (101, 6, 1,00000000000000000000e+00) (101, 6, 1,00000000000000000000e+00) (101, 6, 1,00000000000000000000e+00) (401, 6, 1,00000000000000000000e+00) (401, 6, 1,00000000000000000000e+00) (401, 6, 1,00000000000000000000e+00) (401, 6, 1,00000000000000000000e+00) (401, 6, 1,00000000000000000000e+00) (401, 6, 1,00000000000000000000e+00) (401, 6, 1,00000000000000000000e+00) (401, 6, 1,00000000000000000000e+00) (401, 6, 1,00000000000000000000e+00) (401, 6, 1,00000000000000000000e+00) (401, 6, 1,00000000000000000000e+00) (401, 6, 1,00000000000000000000e+00) (401, 6, 1,00000000000000000000e+00) (401, 6, 1,00000000000000000000e+00) (401, 6, 1,00000000000000000000e+00) (401, 6, 1,00000000000000000000e+00) (401, 6, 1,00000000000000000000e+00) (401, 6, 1,00000000000000000000e+00) (401, 6, 1,00000000000000000000e+00) (401, 6, 1,00000000000000000000e+00) (401, 6, 1,00000000000000000000e+00) (401, 6, 1,00000000000000000000e+00) (401, 6, 1,00000000000000000000e+00) (401, 6, 1,00000000000000000000e+00) (401, 6, 1,00000000000000000000e+00) (401, 6, 1,00000000000000000000e+00) (401, 6, 1,00000000000000000000e+00) (401, 6, 1,00000000000000000000e+00) (401, 6, 1,00000000000000000000e+00) (401, 6, 1,00000000000000000000e+00) (401, 6, 1,00000000000000000000e+00) (401, 6, 1,00000000000000000000e+00) (401, 6, 1,00000000000000000000e+00) (401, 6, 1,00000000000000000000e+00) (401, 6, 1,00000000000000000000e+00) (401, 6, 1,00000000000000000000e+00) (401, 6, 1,00000000000000000000e+00) (401, 6, 1,00000000000000000000e+00) (401, 6, 1,00000000000000000000e+00) (401, 6, 1,00000000000000000000e+00) (401, 6, 1,00000000000000000000e+00) (401, 6, 1,00000000000000000000e+00) (401, 6, 1,00000000000000000000e+00) (401, 6, 1,00000000000000000000e+00) (401, 6, 1,00000000000000000000e+00) (401, 6, 1,00000000000000000000e+00) (401, 6, 1,00000000000000000000e+00) (401, 6, 1,00000000000000000000e+00) (401, 6, 1,00000000000000000000e+00) (401, 6, 1,00000000000000000000e+00) (401, 6, 1,00000000000000000000e+00) (401, 6, 1,00000000000000000000e+00) (401, 6, 1,00000000000000000000e+00) (401, 6, 1,00000000000000000000e+00) (401, 6, 1,00000000000000000000e+00) (401, 6, 1,00000000000000000000e+00) (401, 6, 1,00000000000000000000e+00) (401, 6, 1,00000000000000000000e+00) (401, 6, 1,00000000000000000000e+00) (401, 6, 1,00000000000000000000e+00) (401, 6, 1,00000000000000000000e+00) (401, 6, 1,00000000000000000000e+00) (401, 6, 1,00000000000000000000e+00) (401, 6, 1,00000000000000000000e+00) (401, 6, 1,00000000000000000000e+00) (401, 6, 1,00000000000000000000e+00) (401, 6, 1,00000000000000000000e+00) (401, 6, 1,00000000000000000000e+00) (401, 6, 1,00000000000000000000e+00) (401, 6, 1,00000000000000000000e+00) (401, 6, 1,00000000000000000000e+00) (401, 6, 1,00000000000000000000e+00) (401, 6, 1,00000000000000000000e+00) (401, 6, 1,00000000000000000000e+00) (401, 6, 1,00000000000000000000e+00) (401, 6, 1,00000000000000000000e+00) (401, 6, 1,00000000000000000000e+00) (401, 6, 1,00000000000000000000e+00) (401, 6, 1,00000000000000000000e+00) (401, 6, 1,00000000000000000000e+00) (401, 6, 1,00000000000000000000e+00) (401, 6, 1,00000000000000000000e+00) (401, 6, 1,00000000000000000000e+00) (401, 6, 1,00000000000000000000e+00) (401, 6, 1,00000000000000000000e+00) (401, 6, 1,00000000000000000000e+00) (401, 6, 1,00000000000000000000e+00) (401, 6, 1,00000000000000000000e+00) (401, 6, 1,00000000000000000000e+00) (401, 6, 1,00000000000000000000e+00) (401, 6, 1,00000000000000000000e+00) (401, 6, 1,00000000000000000000e+00) (401, 6, 1,00000000000000000000e+00) (401, 6, 1,00000000000000000000e+00) (401, 6, 1,00000000000000000000e+00) (401, 6, 1,00000000000000000000e+00) (401, 6, 1,00000000000000000000e+00) (401, 6, 1,00000000000000000000e+00) (401, 6, 1,00000000000000000000e+00) (401, 6, 1,00000000000000000000e+00) (501, 6, 1,00000000000000000000e+00) (501, 6, 1,00000000000000000000e+00) (501, 6, 1,00000000000000000000e+00) (501, 6, 1,00000000000000000000e+00) (501, 6, 1,00000000000000000000e+00) (501, 6, 1,00000000000000000000e+00) (501, 6, 1,00000000000000000000e+00) (501, 6, 1,00000000000000000000e+00) (501, 6, 1,00000000000000000000e+00) (501, 6, 1,00000000000000000000e+00) (501, 6, 1,00000000000000000000e+00) (501, 6, 1,00000000000000000000e+00) (501, 6, 1,00000000000000000000e+00) (501, 6, 1,00000000000000000000e+00) (501, 6, 1,00000000000000000000e+00) (501, 6, 1,00000000000000000000e+00) (501, 6, 1,00000000000000000000e+00) (501, 6, 1,00000000000000000000e+00) (501, 6, 1,00000000000000000000e+00) (501, 6, 1,00000000000000000000e+00) (521, 6, 1,00000000000000000000e+00) (521, 6, 1,00000000000000000000e+00) 
connections (connected_to_neuron, weight)=(0, -1,44962776909680481907e+01) (1, -8,45535609898319684419e+00) (2, 1,39838022423038288444e+00) (3, -2,23299972171506366792e+00) (4, 3,97281374953162158548e+00) (5, 1,20413348760301257556e+01) (6, 7,82236695046006769161e+00) (7, 4,58328305795889257013e+00) (8, 2,33087730813068461089e+00) (9, -3,88227997760840271013e+00) (10, 1,08593069614319870375e+00) (11, 3,23396922451376900298e+00) (12, -5,74312230681661972653e+00) (13, -3,23910327672301079360e+00) (14, -2,18003672974859918909e+00) (15, -4,46643414081084699774e+00) (16, -2,44318902396743853345e+00) (17, 1,38663787814891259487e+00) (18, 1,93584925464033785758e+00) (19, 7,46593872399620273050e-01) (20, 2,82382300206795591180e+01) (21, 6,23071968644268920912e+01) (22, 3,56931781596830699499e+00) (23, 5,74679591992884319929e-01) (24, 1,24987171406139618846e+00) (25, 2,52005431770563692595e+00) (26, 7,51434586482787736372e+00) (27, 7,09178187243377688986e+00) (28, 8,18282827012949631751e+00) (29, 1,11060646680839578693e+01) (30, 4,27959133040198622666e+01) (31, 2,01895791879485777542e+01) (32, 2,53696982765512180080e+00) (33, 6,97871907282705805642e+00) (34, 4,22039161415928099075e+00) (35, 6,97568330688608817525e+00) (36, 3,15349552021841006422e+00) (37, 1,60570152542334598778e+00) (38, 1,16215744932705167258e+00) (39, 2,63304643438547314460e+00) (40, 1,46759761772552987935e+01) (41, 1,11263659512397072859e+01) (42, 4,53013133194243877711e+00) (43, 3,00082488750450737669e+00) (44, 2,73575031669102042287e+00) (45, 2,50774772312562088672e+00) (46, 2,17874264674845452561e+00) (47, 2,70528068565309887106e+00) (48, 2,15786128172813462811e+00) (49, 4,22200854121482471726e+00) (50, 6,54879824749675076845e+00) (51, 1,59868143620599045818e+00) (52, 2,92228168259441556387e+00) (53, 1,47578202945620495790e+00) (54, 5,02584456207636876002e+00) (55, 2,89826783539078114416e+00) (56, -9,41931411849708521977e-02) (57, 3,75230566951221589100e-01) (58, 2,57560062268337741642e+00) (59, -3,99214022256659575305e+01) (60, -1,49314034740631011999e+01) (61, 4,71883275907954846673e+00) (62, 2,51333714879843173051e+00) (63, 1,72447087150398603583e+00) (64, -3,25196831447828982320e+00) (65, -2,10778248132409684601e+00) (66, 6,65497260341010421492e-01) (67, 1,33028324312119217154e+00) (68, 4,86208337463263084999e+00) (69, 6,58625381688144173609e+00) (70, 4,61364614748117318754e+00) (71, 3,67400016944199192537e+00) (72, 2,08734289500634018211e+00) (73, 2,83935147930763021051e+00) (74, -2,80195595563366195435e+00) (75, -1,31384551800667881416e+00) (76, -4,57921387279891456412e-01) (77, 4,26696484464545733317e+00) (78, 6,47997715668032658876e-01) (79, -2,13039105847930221316e+00) (80, -5,04681415131874455682e+00) (81, -3,09250262623510030480e+00) (82, -3,72746652333524775003e+00) (83, -2,30338164722204696844e+00) (84, -4,77380517973526818931e-01) (85, 1,42086666196435782439e+01) (86, -1,12791342100308766838e+00) (87, 6,26761431219648113000e+00) (88, 1,11774652701108685449e+01) (89, 9,70187825158578043272e+00) (90, 2,14869868323451527203e+01) (91, 1,72249761614724694603e+00) (92, 2,97224576509330695728e+00) (93, -5,79728015248534234161e-01) (94, -1,16639915353349898908e+00) (95, -4,66967521215826852909e+00) (96, 1,11016288334842161412e+00) (97, -6,95291383677037533317e+00) (98, 6,90564088115430796400e-01) (99, 5,17396784883547855571e+00) (100, -6,10808327819211083209e+00) (0, 5,09085772069272906037e+01) (1, 3,12584212133038157333e+01) (2, 3,63366619692240249151e+01) (3, 1,70474713413486291813e+01) (4, 6,33240623384485612490e+00) (5, 9,44452806780185616375e-01) (6, 2,29261322634208131177e+00) (7, -4,03194741768738929011e+00) (8, 2,17850514179027898720e+00) (9, 7,20950305095750532125e-01) (10, 1,93812510243376467933e+00) (11, -3,87628608385464146213e-01) (12, -3,28862358959252920609e-01) (13, -1,66205722766363495069e+00) (14, -5,43302289576406227667e+00) (15, -6,94073597340447001613e+00) (16, -2,47806844442442049115e+01) (17, -3,54622941975179850616e+00) (18, -3,42482500453999705314e+00) (19, -2,30242728499284821098e+00) (20, 4,47248093543446745279e-01) (21, 6,73404111670174110316e-01) (22, 2,01740223534231377656e+00) (23, 1,97704274031210003315e+00) (24, 2,08189367696067284541e+00) (25, 7,98794135502574054186e-02) (26, 1,50587385684162833321e+00) (27, 2,04565181054238109937e+00) (28, -7,20457230682645222153e-01) (29, -1,87526535169336341369e+01) (30, -1,75685791408917886258e+01) (31, -2,74982329984931475053e+01) (32, -1,00765182323969462175e+01) (33, -3,10776337348285061069e+01) (34, -1,53805919145957865624e+01) (35, -1,37841329448088529830e+01) (36, -5,78308278354305316249e-01) (37, -1,78074115772181196249e+00) (38, -1,65339141414574619660e+00) (39, -2,24116595088299996874e+00) (40, -4,54303750635291692106e+00) (41, -1,95528697377188165341e+00) (42, -2,03663671780504529352e+00) (43, -1,60970959606378793971e+00) (44, 1,48704667066809737008e+01) (45, 4,08486424632934852497e+00) (46, 3,28192135757870051549e+00) (47, 5,05241345619094683883e+00) (48, 5,87795356262067603126e+00) (49, 8,90758463352778129263e+00) (50, 2,07135800855784424357e+00) (51, 9,00268199381407230319e-01) (52, -1,38998577114579857650e+00) (53, 3,26120490089272285772e+00) (54, 3,30059779318513113466e+00) (55, 1,36177500630267700465e+00) (56, 2,18179831327206841252e+00) (57, 2,74615382377161632022e+00) (58, -1,92012494504575012555e-02) (59, -2,86356049427577818989e+00) (60, -5,77168739028809718583e-01) (61, 6,35007475635332996333e-01) (62, 9,51573826923929000365e-01) (63, -1,59097814656253300214e+00) (64, -3,37200191437829621677e+00) (65, 3,21673306362758926191e-01) (66, 9,13534849640259327685e-01) (67, 2,28087351260348780713e+00) (68, 1,87133288798405600373e-01) (69, -2,74031836896149050276e+00) (70, -4,92550545431207176250e+00) (71, 3,04353056047870995648e-01) (72, 3,19165753649484740251e+00) (73, -1,54545250425585911636e+00) (74, 5,10742694732815749603e+00) (75, 4,92777529144638215541e+00) (76, 1,40704361479910144972e+00) (77, 2,11279202884015626651e+00) (78, 6,50088091697976433458e-01) (79, 3,37026500456475419654e+00) (80, 3,05075207330111286552e-01) (81, 4,74518429504871352975e+00) (82, 1,62700772385382066432e+01) (83, 1,78607191483327163439e+01) (84, 3,66873030012793766019e+00) (85, 4,45704789968642156595e+00) (86, 6,99723217957216192531e+00) (87, 2,13775630095995605728e+00) (88, 2,37850442304169629182e+00) (89, 5,49013650877390180227e-01) (90, 1,48819652574922312027e+00) (91, 3,50469347462022717821e+00) (92, 3,64449658475586133477e+01) (93, 3,92546272943218070850e+01) (94, 5,41805604962670805946e+00) (95, 8,44607788262548631053e+00) (96, 2,20578001241553671719e+01) (97, 2,38669919929959846172e+01) (98, 6,07076825016001890845e+01) (99, 1,14957503076593809510e+02) (100, 1,86235734547113445103e+01) (0, 9,49392886782502465337e+00) (1, 5,32342062068271548725e+00) (2, 1,46553570016994472169e+00) (3, -6,73086247895947842323e-01) (4, 1,11009111673102989215e+00) (5, 4,04317930892052412872e+00) (6, -5,79300098585693223896e+00) (7, -2,98601604171340229144e+00) (8, -8,58783034484395968455e-01) (9, 7,81711515130989575972e-01) (10, 6,45562489003701167611e-01) (11, 2,78658681909650540742e-01) (12, 2,63971416127138081009e+00) (13, 8,18412349924629900499e+00) (14, 2,42095072250062193220e+00) (15, 1,25133536859260310337e+01) (16, 2,99263167862089574101e+00) (17, 2,85007387366470421597e+00) (18, 1,04095779820855085518e+01) (19, 2,45774183051715988668e+00) (20, 1,38803151624831500044e+00) (21, 3,51640495870561764491e+00) (22, 5,37008928217283409978e-01) (23, 1,01827412898406954866e+00) (24, 2,05538749592125169485e+00) (25, 3,86635047435064915788e+00) (26, 2,05649948372332236346e+00) (27, -8,09903339293982615921e-01) (28, 1,24726961356075705112e+00) (29, 4,23691509254724518740e+00) (30, 8,40888708180594512953e+00) (31, 6,23857910727882014612e+00) (32, 7,87574820631944394478e+00) (33, -3,44120212088782240212e-01) (34, 4,84167290656836968310e+00) (35, 4,26459241797743331404e+01) (36, 1,83515084635552696568e+01) (37, 2,85009954114629131539e+01) (38, 7,23125928344670398928e+00) (39, 2,71090986367153909953e+01) (40, 6,05298670367880653487e+00) (41, 7,29074833611410433321e+00) (42, 4,11947877522726013666e+00) (43, 1,04703805047648645932e+00) (44, 1,45978875513836037214e+00) (45, 3,42636229403922198955e+00) (46, 3,51657070353752598812e-01) (47, -1,36575360149449182012e-01) (48, 2,15042074267573823931e+00) (49, 4,14320873472871209486e+00) (50, 8,78421819094480404999e+00) (51, 2,71771476891351282390e+00) (52, 3,07577705019732272618e+00) (53, -3,93284228597848839470e-01) (54, -5,04201507246447491184e+01) (55, -5,06891769977400343805e+01) (56, -1,99204051696118895620e+01) (57, 3,01081509948595560378e-01) (58, 1,63662861889737620835e+00) (59, 4,40986182141567972792e+00) (60, 3,20204969445469556089e-01) (61, 5,58424221705945522665e-01) (62, 1,29920267403975420173e+00) (63, -1,57467480707643825433e+00) (64, -2,42155441688713946036e-01) (65, 8,15595554410463385864e-01) (66, 2,31245823880191059274e+00) (67, 2,97184795759902842249e+00) (68, 4,43614073946621445543e+00) (69, 3,93849887639462670208e+00) (70, 3,77831091216818215628e+00) (71, 2,94987243951445510248e+00) (72, 2,19896344844695601495e+00) (73, -1,63651659344754341063e+00) (74, -2,12808370387386913691e+00) (75, 6,70435309813552260394e-01) (76, 2,28260861830235439740e+00) (77, 5,82023882284001459197e+00) (78, 2,62099476829027855374e+00) (79, -1,20686398990730281433e+00) (80, -3,63700281153246551824e+00) (81, -9,69249284882123340878e+00) (82, -6,72100645327464540912e+00) (83, 1,16271370773763371709e+00) (84, -7,85515093928539021029e-01) (85, -3,24860474626951578614e+00) (86, 3,08949275792539612695e+00) (87, 5,02711234156240194260e-01) (88, 2,27927830188197155792e+00) (89, 6,90330961762488115596e+00) (90, -9,51871347907704290492e+00) (91, 3,66614679533342524564e+00) (92, 1,16005829628856504954e+00) (93, 1,05448687106034744154e+00) (94, -3,00877434796284903840e+00) (95, 3,27902588537278338876e+00) (96, -1,45911890028275470499e+00) (97, 6,72560015033052183142e-01) (98, -1,90804558282827541049e+00) (99, 4,57181749723004515751e-01) (100, -2,87868508163975000969e+00) (0, 2,17409039981760443538e+00) (1, 4,61091666564442170806e-01) (2, 1,61458990715969097351e+00) (3, 1,17288675427524946571e+00) (4, 6,57294963122790565357e-01) (5, 1,56158297380709942814e+00) (6, 7,95505615731100768073e+00) (7, 8,20311502518225310610e+00) (8, 2,24561598524970884583e+00) (9, 2,44757884893556854067e+00) (10, 3,38204632222401357922e+00) (11, 4,44936723385731269786e+00) (12, 4,57079501484420891444e+00) (13, 3,10708224377580988218e+00) (14, 4,55603474899641991414e+00) (15, 3,41747688698928220319e+00) (16, 3,25119995592229438230e+00) (17, 4,53991563925446772743e+00) (18, 6,81750459067828007420e+00) (19, 6,51219456864452883593e+00) (20, 4,92361578093184437677e+00) (21, 3,31406349881527129142e+00) (22, 4,48291286787046860951e+00) (23, 2,41684050306449504930e+00) (24, 2,46921858117400949695e+00) (25, 3,89086488565993926514e+00) (26, -1,85164493893323761631e-02) (27, 8,83902627343354563294e-01) (28, 6,96034142127382016163e-01) (29, -2,59672221920323398336e+00) (30, 9,58835925922630449847e-01) (31, 1,37552376336259540857e+00) (32, 1,34299945939071063705e+00) (33, -3,07667176356193605713e+00) (34, -3,49527985319575906775e-01) (35, 2,10438615751275470700e+00) (36, 2,22818533800830786973e+00) (37, 3,48095232946866195434e+00) (38, 3,20784458102818081926e+00) (39, 4,37295288447776719920e+00) (40, 3,95340058539557492878e+00) (41, 6,33807766944646555629e+00) (42, 2,11774505028626247594e+00) (43, 3,02095030359385985363e+00) (44, 2,69915642586961901372e+00) (45, 4,94471076163688039173e+00) (46, 5,49534410788470584208e+00) (47, 5,09510426990074893894e+00) (48, 5,25858706312030577124e+00) (49, 4,15809660440366624101e+00) (50, 2,67687348112541245726e+00) (51, 2,61940421161552183804e+00) (52, 1,28565934505040573299e+01) (53, 1,15144258344805656691e+01) (54, 5,20840898089121839831e+00) (55, 5,99550606684552356285e+00) (56, 4,99123214439947826548e+00) (57, 2,47847138518238274685e+00) (58, 3,36760207610729178640e+00) (59, 3,42670425452226412588e+00) (60, 3,51702415876772711556e+00) (61, 3,88877469909764172940e+00) (62, 7,76695641144006554413e+00) (63, 7,07560949065858402207e+00) (64, 6,38630122271058286998e+00) (65, 9,43337917906388057077e+00) (66, 1,12960037990403971975e+01) (67, 1,78443720760055910546e+01) (68, 2,92280133277355602672e+01) (69, 1,30581327160135014509e+01) (70, 1,22779867584368496125e+01) (71, 1,44920815571861805182e+01) (72, 4,54577586002001954313e+00) (73, 3,85782803015440123318e+00) (74, 3,00628965287495963921e+00) (75, 6,38249188396911248944e-01) (76, -7,16464523046700718645e-01) (77, 5,46860318719678506483e+00) (78, 1,48453608895920874389e+00) (79, 2,11872296943452775864e-01) (80, 1,79854140041774286374e+01) (81, 4,90007275794553720516e+01) (82, 7,90012587711231617504e+00) (83, 2,00972806290659189443e+00) (84, 3,69785663932956421007e+00) (85, 5,02705480557611306125e+00) (86, 2,82916621789548061727e+00) (87, 2,72079135155125761969e+00) (88, 5,09807041601751453896e+00) (89, 6,63172448728681818153e+00) (90, 8,71880412600977372506e-01) (91, 2,48853888860458605237e+00) (92, 2,11312629932465156912e+00) (93, -9,79204385661067711055e-02) (94, 6,96303204746476644971e+00) (95, -1,96259268584745139030e+00) (96, 1,82751571323711314854e+00) (97, 7,98733520432710975001e+00) (98, 2,79408614506613055539e+01) (99, 1,06788296255089960596e+01) (100, 1,34809879226077214298e+02) (0, -2,16539928523646851843e+00) (1, -5,03559317942896211839e-01) (2, 2,21738850902987305602e+00) (3, 1,92359571768124659741e+01) (4, 4,74986595762468333248e+00) (5, 8,51971700972075085545e-01) (6, -1,11948589867929459984e+00) (7, -1,28794431137795961639e+00) (8, -2,31014797076860167735e+00) (9, -7,83546106101606354422e-01) (10, 2,27882497174702347564e+00) (11, 7,70942171919014462844e+00) (12, 7,13235322878405586522e+00) (13, 6,65140974347117719390e+00) (14, 3,19326298603150249278e+00) (15, 6,81379783357527823995e+00) (16, 2,33374702147926216256e+00) (17, 3,56339777547990754769e+00) (18, 5,22626073424151638136e+00) (19, 9,57927567877828245457e+00) (20, 6,42914460897144746099e+00) (21, 2,55255710539679858684e+00) (22, 3,17548645143968322202e+00) (23, 4,76183671582529921551e+00) (24, 5,53029319183445888797e+00) (25, 1,07941102338843575303e+00) (26, -4,96788343171805368836e-01) (27, 2,92545768004164186138e+00) (28, 5,13230971465107188578e+00) (29, 5,59494753699261693214e+00) (30, 2,96975590123098776019e+00) (31, 3,57170658181240918694e+00) (32, 6,38210376138905211008e+00) (33, 5,55757337258299344285e+00) (34, 7,02299477626079315939e+00) (35, 1,23497099028654826469e+01) (36, 4,17037139699082857192e+01) (37, 1,26500642430660121818e+01) (38, 3,05285822490493741199e+00) (39, 3,82944162505842422561e+00) (40, 5,26862423412817371116e+00) (41, -2,60323713582945537315e-01) (42, 1,01006919651826576612e+00) (43, 1,38857575474213152944e+01) (44, 1,20964877468796707660e+01) (45, -1,55353768969791561361e+00) (46, -9,28048924400871722007e-01) (47, -5,36487461134256937711e-01) (48, -3,78814199487494018825e+00) (49, 1,29230495450551141623e+00) (50, 2,04825390654165273574e+00) (51, 4,22403200224670261065e+00) (52, 6,87521615605605695976e+00) (53, 5,07967871761032263578e+00) (54, 1,61671125603336633958e+01) (55, -1,84103527143225664808e+00) (56, 4,88861001750165724555e-01) (57, -1,44119886414924147644e+00) (58, 1,38033200142747114469e+00) (59, 3,92097099359821754661e+00) (60, 2,41740900448350393148e+00) (61, 2,37225066585280863762e+00) (62, 2,66040710142907999014e+00) (63, 3,52936115027887797879e+00) (64, 1,68492806772019654282e+00) (65, 7,13055523618347897319e-01) (66, 8,45800091495301997746e-01) (67, 2,47424754007111147303e+00) (68, 1,29249153090366664109e+00) (69, -1,15633203248859506296e+00) (70, 7,49689217055016510205e-02) (71, 1,93677293536782579864e+00) (72, 2,77994885652693790590e+00) (73, 6,44691161338844587192e+00) (74, -1,53279865296622652693e+00) (75, -2,74111110654378631324e+00) (76, 1,46801883437588776005e+00) (77, 5,26875429136330808433e+00) (78, 7,78014783930789022293e+00) (79, 2,00964189021643857558e+00) (80, 1,57952765323386201679e+00) (81, 1,21932713432453621039e+00) (82, 1,98909724659570597005e+00) (83, 9,12761302849441569229e-01) (84, 4,88200469356679989108e-01) (85, 2,69237226885445490865e+00) (86, 9,11489277091508176554e-01) (87, 6,80043546448907298974e-01) (88, -1,07827616578251439527e+00) (89, 4,92316747706604662671e-01) (90, 2,26218301290877255028e+00) (91, 1,92158947588305961673e+00) (92, -1,29842426583712611254e+00) (93, -1,18110449440153211786e-01) (94, -2,13639236515702712893e-01) (95, -4,06250703326951401184e-01) (96, -4,11253560766053904985e+00) (97, -1,70956516800008380130e+01) (98, -7,99735782258562899472e+00) (99, -1,87543394046435203393e+01) (100, 1,29048209578382575557e+01) (0, 1,54189115730664099146e+01) (1, 2,39435192596302357515e+01) (2, 1,18521567049201230759e+01) (3, 1,78358395008103265411e+01) (4, 2,45418689343931006874e+01) (5, 4,97039881093277742252e+01) (6, 1,89374375939928611956e+01) (7, 7,04730908711670309685e+01) (8, 3,24440255738723806189e+01) (9, 3,81437719266703965104e+01) (10, 1,14293670593185332507e+01) (11, 6,23746940038221620028e+00) (12, 5,74542070546634064954e+00) (13, 1,00767227733208475371e+01) (14, 3,16215169838502019317e+00) (15, 5,92578417244036259603e+00) (16, 4,30084920046908525393e+00) (17, 1,77569340169866656254e+01) (18, 4,67924190780605187001e+00) (19, 4,40197923572349569810e+00) (20, 6,38942398465927308138e+00) (21, 5,99441989087677740144e+00) (22, 8,73837535287437283671e+00) (23, 8,01916198712771688406e+01) (24, 4,43504284190097219920e+00) (25, 1,76196626740408248679e+01) (26, 4,55180620615475035606e+01) (27, 4,57424709826593023365e+00) (28, 3,13472979992415767825e+00) (29, 3,47288553733267946200e+00) (30, -4,70677462384465200573e-02) (31, 4,12472257749788440151e+00) (32, 2,31707355267581727176e+00) (33, 1,52458916501415453482e+00) (34, 1,33373385453542936396e-01) (35, 4,76998285951683087536e-01) (36, 6,66277324987456287531e-01) (37, 9,75202928969287730077e-01) (38, 8,67384845493037515141e-01) (39, -8,95309586988208283564e-01) (40, -4,78165069976545176189e+00) (41, -5,21720749419142126868e+00) (42, -9,01465933103718519703e+00) (43, 1,77271988589145568227e+00) (44, 5,79121433985366262931e+00) (45, 4,51237075818338606581e+00) (46, 1,88953614927055957295e+00) (47, 2,95924425652791578401e+00) (48, 1,61420315243584466813e+00) (49, 1,43194113882425373419e+01) (50, 1,28840682854809838176e+01) (51, 5,51975138854318370107e+00) (52, 3,72478675370938994149e+00) (53, 1,10674890854423768616e+01) (54, 3,50471139354474026106e+00) (55, 3,16078803693372867301e+00) (56, 3,43009020291766697497e+00) (57, 2,10977552842699100921e+00) (58, 2,41289937776592555707e+00) (59, 3,18720029802876325675e+00) (60, 2,61005114616506261882e+00) (61, 1,73174410534797940109e+00) (62, 3,89968347605173981663e+00) (63, 2,41437001390774463871e+00) (64, 6,19398883597571003889e+00) (65, 1,03185833717457189351e+01) (66, 6,28036948081948587230e+00) (67, 5,47642823296448622017e+00) (68, 4,96839138403171620695e+00) (69, 7,19604431031080959968e+00) (70, 1,10828991693019425213e+01) (71, 3,98517143886662017493e+00) (72, 6,00586444704504440750e+00) (73, 3,46910171471600525805e+00) (74, 2,10343267038494330379e+00) (75, -1,11475907976479682304e+00) (76, 4,46177830014181264762e-01) (77, 1,67072505321862552208e+00) (78, 1,49514361689828634283e+00) (79, 3,94346933298079446728e-02) (80, 2,54374822694624480590e+00) (81, 3,46387587897067694698e+00) (82, 2,66896919240724272981e+00) (83, 3,17876586007315564686e+00) (84, 1,82805125095623366427e+00) (85, -7,07203021621665239849e+00) (86, 1,25979293546278015015e-01) (87, 2,68605524569391462819e+01) (88, 6,64808759014391537079e+00) (89, 1,08745966404090985691e+01) (90, 1,40602389286663278511e+01) (91, 1,01148597827256576664e+01) (92, 5,37277245588742502491e+00) (93, 4,02157379497048328432e+00) (94, 2,00658062440994955367e+00) (95, 3,56434436250980102301e+00) (96, 3,94361884650148786235e+00) (97, 8,71976491389655805619e+00) (98, -4,56864217383636699310e+01) (99, -2,86343567078962344397e+01) (100, 9,30652279181835240252e+00) (0, 1,32498183397591020594e+01) (1, 6,80057825861715059546e+00) (2, -9,21890943181800093242e-01) (3, 2,68449208046947940254e-01) (4, 7,55815352385269179081e+00) (5, -4,09450314619505872926e-01) (6, -2,12182820086759704736e+00) (7, -6,46864654852604559210e+00) (8, -3,73797927568475607529e+00) (9, -5,56941762126226524998e+00) (10, -7,31453039944735117217e+00) (11, -1,52986220556835750273e+01) (12, -5,54761441053127768441e+00) (13, -5,16388894173593815395e+00) (14, -1,35516818916133585660e+00) (15, -3,84137887990310478159e+00) (16, 2,35330941633631107734e+00) (17, 6,87544154867900214612e-01) (18, 8,87676359017987581801e-02) (19, -2,30760673276940497800e+00) (20, 4,16059384741508608840e+00) (21, 4,73025512808466941372e-01) (22, -5,77784771204021163626e-01) (23, -2,39219581037353989927e+00) (24, -1,33326977735568674710e+00) (25, 1,00000496287463058742e+00) (26, 2,38804133872163815155e+00) (27, 4,02659841471592905293e+00) (28, 3,41912105140380484514e+00) (29, 3,68067606706181127407e+00) (30, 2,20706931229013658680e+00) (31, 5,87795678883019689920e+00) (32, 1,54604450243528646070e+00) (33, 2,64169258991486044508e+00) (34, 2,47930660575100869636e+00) (35, -4,59980517967516266964e+00) (36, -2,22730794052026848107e+00) (37, 1,44360445240277424084e+00) (38, -1,08452537873605980856e+00) (39, -1,35876164390502229828e+00) (40, -1,65191843697870766050e+00) (41, -4,72351732266971691132e+00) (42, -5,66405199195717745653e+00) (43, 1,00717121234112010342e+01) (44, -3,42085576658009626883e+00) (45, 1,10137600690671955128e+00) (46, -5,79992565994796982487e-01) (47, -7,27988923277395061362e-01) (48, -2,53944594728944039730e-01) (49, 2,05038581738712322178e+00) (50, -5,10094127230817218077e+00) (51, -9,27962561340271108179e+00) (52, -1,19423043861184279280e+01) (53, -5,50384175770988992582e+00) (54, -1,47639450998020542727e+01) (55, -1,00787501722970311846e+01) (56, -6,19505333838390548351e+00) (57, -1,31132334893110935603e+00) (58, 4,21716755870369830461e+00) (59, 8,75532247662002105493e-01) (60, 1,21951300681054752850e+00) (61, 4,00886889424174608365e+00) (62, 8,62330328470910778549e+00) (63, 5,02761131524238003010e+00) (64, 6,05950212707480595498e+00) (65, 1,31946273990031026635e+00) (66, 9,18865767359783980339e-01) (67, -1,23513528045646539533e-01) (68, -6,99509349696267657137e-01) (69, -4,03993586846286556469e-01) (70, -4,12066945318641741913e-01) (71, 9,16615962565473924029e-02) (72, -1,43433919641326168559e+00) (73, 2,75814448074566676006e-02) (74, -1,72707256492708149942e+00) (75, -2,09410602537889056762e+00) (76, -5,05035845124264137773e-01) (77, -1,63305341081953758753e+00) (78, 3,41479428584836042226e-01) (79, 1,93754794184537670887e+00) (80, -4,02835504623029994065e+00) (81, -4,09158106828098322438e+00) (82, -5,62407824703098357944e-01) (83, -3,73061276865992619278e+00) (84, -4,13687140977249878659e+00) (85, -6,53726032819505892268e-02) (86, -2,56946669941412775273e+00) (87, -5,91652404417150723503e+00) (88, 6,97942211622363584134e-01) (89, -2,97234269903041736782e+00) (90, -2,52191178143823657720e+00) (91, -5,70946708041908568276e+00) (92, -7,02709272783571670118e+00) (93, -4,31371002455411289844e+00) (94, -5,73679739977353833069e+01) (95, 3,12416228926609811367e+01) (96, 2,51574655038878240987e+01) (97, 1,58301142997603583318e+00) (98, 7,45252393283641811905e+00) (99, 1,56586039779161545482e+00) (100, 7,35667249646891274750e+00) (0, -1,65141583758001573301e+01) (1, -1,01284908654670680050e+00) (2, -1,31706437309558710425e+00) (3, 7,73594487890392423779e-01) (4, -3,39794638035038232271e-01) (5, 1,70966238544734094873e+00) (6, 8,59779315617313422138e+00) (7, 3,70818739499326666120e+00) (8, 2,13382215365518712602e+00) (9, 2,24782535216921131038e+00) (10, 1,87147460727733716546e+00) (11, 5,67294317454834029490e+00) (12, 3,33551793200783164295e+00) (13, 8,13006274191963029807e+00) (14, 8,01360449180120859580e+00) (15, 3,24722423061376153086e+00) (16, 3,30858241789940654698e+00) (17, 5,44666024280241023448e-01) (18, -8,40616216574987529242e-01) (19, -9,30182574603931278112e-01) (20, -2,77765236628451894774e+00) (21, -1,72929741920369517416e+00) (22, -3,77356529037429444529e-01) (23, -2,28641120155286314830e-01) (24, 1,52836980839440594870e+00) (25, 2,48651380299359248127e+00) (26, 1,30201703067575325079e+00) (27, 4,32357397138811005988e+00) (28, 1,06752423219153822487e+01) (29, 1,46948771314241053432e+01) (30, 2,58633029858963814362e+00) (31, 2,51661665472394417975e+01) (32, 6,26854126024090074765e+00) (33, 4,85383535558269052501e+00) (34, -4,33333003937296346031e-01) (35, 2,93722208122424355281e+00) (36, 2,73568101181079903483e+00) (37, -3,37830255812264068638e+00) (38, 4,72271895648017969727e-01) (39, 8,97908847217374450622e+00) (40, 2,89335797075229130826e+01) (41, 5,82449356052324507260e+00) (42, 4,24711840387581762712e+00) (43, -3,09975362770898599241e-01) (44, 1,18697384811487918199e+01) (45, -3,44322801068213202313e+00) (46, 6,38834094974413901902e-01) (47, 2,27679026783979132631e+00) (48, -1,27712840255888249175e+00) (49, 1,79536431936663838371e+01) (50, 3,36695468583694346165e+00) (51, 2,68832638278781255181e+00) (52, 2,87810372578932716081e+00) (53, 1,18955556636088655154e+01) (54, 1,28457816134231332938e+01) (55, 8,87286789486459959164e+00) (56, 3,41446171054184022253e+00) (57, 1,03361406388636023479e+01) (58, 1,78153095882491783186e+01) (59, 2,47208018341088013869e+01) (60, 5,11719488509489028871e+00) (61, 3,95798260809058133347e+00) (62, 6,88933028047404771854e+00) (63, 8,26190608483601174328e+00) (64, 9,25183102160914572210e+00) (65, 2,44854990165696939641e+00) (66, 3,37688868472706271717e+00) (67, 2,40486540911455604075e+00) (68, 4,26104904151906360710e+00) (69, 3,06865264684536276363e+00) (70, 1,73049992401135721565e-01) (71, -2,06707479318327802531e+00) (72, -4,87740179496789760805e+00) (73, -8,76596993247772360291e+00) (74, -6,55359228029902496360e+00) (75, 9,61316470043790949340e-01) (76, 8,32661422657778316214e-01) (77, -5,03913900310000023586e-02) (78, -9,11099615318589184376e-01) (79, -1,23352984648093855213e+00) (80, -1,85663991773904846205e+00) (81, -5,72213379055275979113e+01) (82, -1,86648654774319808780e+01) (83, -3,36224064077004953788e+01) (84, -7,81334570763733982091e+00) (85, -7,95758664486240530067e+00) (86, 3,19794515405577683964e+00) (87, 2,40445867681903324709e+00) (88, 2,28403085669824834625e+00) (89, 4,21602487931892344619e+00) (90, -3,84582412877167367782e+00) (91, 3,92901651269037577308e+00) (92, 1,41312206270451365953e+01) (93, 1,95944003921304421567e+01) (94, 9,91744354340875666765e+00) (95, 1,49146738439641879381e+01) (96, 5,99760894002802569247e+00) (97, 1,19997812914022325970e+01) (98, 1,21017628924706031057e+01) (99, 2,22033627122536003640e+00) (100, 5,02484570377331518642e+00) (0, 8,38948043538161769561e+00) (1, 7,50216880441591982276e+00) (2, 3,30161872445105775142e+00) (3, 4,28536328782248343572e+00) (4, 4,80569261811297199216e+00) (5, 4,47309822049440963809e+00) (6, 5,47847876534134137216e+00) (7, 1,18097708063050550464e+01) (8, 5,55878685939869665589e+00) (9, 8,16590613101771189974e+00) (10, 7,61200655199941511597e+00) (11, 1,10277913680960466536e+01) (12, 8,67616608163808678000e+00) (13, 1,06055096015694019229e+01) (14, 1,20233544030330001817e+01) (15, 2,20256072582862533205e-01) (16, 7,31921729298073753256e+00) (17, 5,23318358652865889269e+00) (18, 9,01567738608462398986e+00) (19, 1,26499997384981899273e+01) (20, 1,85009233218956161693e+01) (21, 1,60539700618911282959e+01) (22, 1,84355329130381768721e+01) (23, 1,15938147531919923949e+01) (24, 8,97976848428417717685e+00) (25, 8,49492796353445633883e+00) (26, 4,50994637810561993518e+00) (27, 2,61434306604592281431e+00) (28, 3,15013465747968224306e+00) (29, 4,81407265338166379109e+00) (30, -5,42097953577062874331e+00) (31, -1,93320009039853202282e+00) (32, -6,61832976731163835638e+00) (33, -1,10710979335538155510e+01) (34, -1,06892756352382289897e+00) (35, -2,80537760548081216427e+00) (36, -2,46561309944913042980e-01) (37, 6,05369535345040454821e-01) (38, 1,30389325876875217247e+00) (39, 1,76126491077872748825e+00) (40, 1,21394499767938479629e+00) (41, 2,22448173031425655566e+00) (42, 3,57172083631231673806e+00) (43, 2,68490433463964039973e+00) (44, -2,39279987154526763149e+00) (45, 3,63832904635479514877e-01) (46, 1,42321900754658420274e-01) (47, 2,15834406482208285283e+00) (48, 1,20261365305100276224e+00) (49, 4,84056460929708165519e-01) (50, 2,36364329832586328450e+00) (51, 1,07137478868218205541e+00) (52, 1,36987423828291721151e+00) (53, 1,76766397348101933495e+00) (54, 2,28883276494398657519e+00) (55, 4,91134024344429853670e+00) (56, 7,89278816117642723071e+00) (57, 9,38631986369022008887e+00) (58, 5,14727262852902356371e+00) (59, 1,49302571027003394555e-01) (60, -1,93015838598556532801e-01) (61, -8,62507020671368751508e-01) (62, 3,09198062834565412516e+00) (63, 5,51267949371757470800e+00) (64, 3,93151080465189028956e+00) (65, 4,55975131595685478914e+00) (66, 7,73812471900188825202e+00) (67, 6,91422049646481440277e+00) (68, 7,96350548285460835274e+00) (69, 1,27526319238401271150e+01) (70, 1,13114822836459421040e+01) (71, 4,79502822415283791457e+00) (72, 1,37745000050400108194e+01) (73, 5,87603049775175989566e+00) (74, 1,93735422608940695000e+01) (75, 2,50719859806168585692e+01) (76, 1,17838890523925634568e+01) (77, 2,81218545169262910122e+01) (78, 1,45132294649464057557e+01) (79, 2,17219644156350621955e+00) (80, -1,95488885728775962924e+00) (81, 2,20162138723654621231e+01) (82, 1,75709978423822725802e+01) (83, 1,70933359610643513804e+01) (84, 2,12034486446357597345e+01) (85, 5,72123374408926466117e+01) (86, 2,29165338805002392064e+01) (87, 7,25375744537763722519e+00) (88, 8,11027054272055991646e+00) (89, 1,90322847240407391212e+01) (90, 4,83546994040129405334e+01) (91, 2,00011483863597199218e+01) (92, 2,00667971384159997683e+01) (93, 1,50087156050306287369e+01) (94, 1,28833131449651130396e+01) (95, 1,13061668689674341692e+01) (96, 1,53989148190970830399e+01) (97, 1,43312092990668169534e+01) (98, 2,04463896653810728310e+01) (99, 2,53116069246275614546e+01) (100, -3,98149219874180460010e+00) (0, -5,35706018663404659463e+00) (1, -2,02223291301877727832e+00) (2, 2,03101218137158445742e+00) (3, 1,27386799157618013645e+00) (4, 3,82163559770292549089e+00) (5, 4,24079949842520775860e+00) (6, 6,94902042040052592142e+00) (7, 6,63085128008027702151e+00) (8, 5,59862059998334338218e+00) (9, 9,02778459660780896456e+00) (10, 6,69965857211425941387e+00) (11, 1,02466518921086926497e+01) (12, 4,41821964143454515295e+00) (13, 2,96513056675797770367e+00) (14, 7,21106657620789537333e+00) (15, 3,15897759944113643016e+00) (16, 1,53838782627227477207e+00) (17, -8,27561583570206416027e+00) (18, 2,56603915514246860852e+00) (19, 6,42816252181012703915e+00) (20, 6,78221581257910433038e+00) (21, 1,19593970806543072882e+01) (22, 2,16031597270965258772e+00) (23, 1,06963999187828817661e+00) (24, 3,13296421511000122706e+00) (25, 7,01308778982486025200e+00) (26, 3,39764017010100438654e+00) (27, 9,91764780406526824663e-01) (28, 2,88426662636436770271e+00) (29, 1,15123228975595437440e+00) (30, 9,82536130827580622693e-01) (31, 3,60703887056680549961e+00) (32, 7,05995509583557989686e+00) (33, 2,58054541901477740851e+00) (34, -6,15181921809749399088e-01) (35, 1,13592375544277723876e+00) (36, 3,28612832469771376509e+00) (37, 2,77669564642271504695e+00) (38, 2,88544035820285982297e+00) (39, 9,01923112566747420260e+00) (40, 4,84777292997178488321e+00) (41, 2,24033929059303860143e+00) (42, 4,16472030779181434657e-01) (43, 2,66797523105927325560e+00) (44, 1,83625867686074606411e+01) (45, 3,56252205636855165949e+01) (46, 5,16822976563722780163e-01) (47, 7,86058956667401165230e-02) (48, 5,75760506318508280543e+00) (49, 9,54520600284389963974e+00) (50, 3,26320368680437011832e+00) (51, 6,68497767560240774287e+00) (52, 4,53694282939595172621e+00) (53, 4,43922691539638503144e+00) (54, -2,55809895735201742184e-01) (55, 3,28268469709533217138e-01) (56, 2,67268426321039376248e+00) (57, 4,50863681069155131098e+00) (58, -1,49111208767791558749e+00) (59, -5,89213994849764333139e+00) (60, -7,44486837115259980635e+00) (61, -3,35009709329511329301e+00) (62, 2,02005045474715361209e+00) (63, 1,66370908820997853717e+00) (64, 4,22454066059399124811e+00) (65, 2,07210391799013571301e+00) (66, 2,80907635048678505640e+00) (67, 2,68837715889989059548e+00) (68, 2,66840681607065288716e+00) (69, 9,85192009401197110741e-01) (70, 2,61964389651335105569e+00) (71, 1,90147194597076341083e+00) (72, 2,07465169375311564437e+00) (73, 4,64904157967989650757e+00) (74, 3,33092039046452654816e+01) (75, 2,05187815923332195212e+01) (76, 4,34205408356217326116e+00) (77, 2,82039688238665249287e+01) (78, 9,76549686471761013706e+00) (79, 2,82806787099519567619e+01) (80, 5,12666102186516781103e+00) (81, 4,94335725076561782743e+00) (82, 3,87919442621866572551e+00) (83, 2,85443311434408331095e+00) (84, 2,24028070722645589186e+00) (85, 5,12690725450203199642e+00) (86, 3,37829506108839261458e+00) (87, 2,40360466055694432796e+00) (88, 3,37157943458268194448e+00) (89, 3,83073979854240942444e+00) (90, 3,95278387046581958231e+00) (91, 3,23967117289793860024e+00) (92, -1,43788246296055755025e+00) (93, 1,43377839192790040856e-01) (94, -1,15432002406139844197e+00) (95, 2,46685173407082647401e+00) (96, 2,87133078511207262551e+00) (97, 1,91827374410647810699e+00) (98, 2,07834187252944246893e+00) (99, 2,11129906945580358979e+00) (100, 7,69768186954762700935e+00) (0, -1,82606775563644134763e+01) (1, -8,85486521746754107198e+00) (2, -2,72724599295777885288e+01) (3, -2,42394149908580516239e+01) (4, -1,46850177477168242213e+00) (5, -3,76125923402817052832e+00) (6, -2,04158995433276491127e+00) (7, -2,21203822773889102749e+00) (8, 2,05526539031940957969e+00) (9, 1,14855054423962421595e+01) (10, 1,12342591340368302966e+00) (11, 3,98053194377889285605e+00) (12, 4,55992968349005778350e+00) (13, 6,64869049639851095179e+00) (14, 3,52180042099586909643e+00) (15, 6,85089150282773662326e+00) (16, 5,73211109283152442373e+00) (17, 1,13171898376312984880e+01) (18, 3,88465467833543609544e+00) (19, 2,44473588505873307142e+00) (20, 4,05640092812544406087e+00) (21, 2,88882052152778179277e+00) (22, 2,95189685728348383265e+00) (23, 3,19990706299131577595e+00) (24, 2,46735439893286834234e+00) (25, 4,14312587201870563547e+00) (26, 6,48248913828399686565e+00) (27, 4,06701815400937416456e+00) (28, 2,91768640919772259679e+00) (29, 3,33138444344283968235e+00) (30, 5,53782106649647953844e+00) (31, 2,98823722962922655455e+00) (32, 4,19455733069013358971e+00) (33, 1,89056911731131283005e+00) (34, 3,15863371014926286318e-01) (35, 1,88337478898412413741e+00) (36, -4,79363962187273062732e-02) (37, -8,49274446801206006619e-01) (38, 1,18340244595179200360e+00) (39, 1,26297729714078244001e+00) (40, -9,10166516867440433813e-01) (41, -7,95047189018141198247e-01) (42, -2,46475501429395826847e+00) (43, 4,72681102943380366810e+01) (44, 1,86384342027246105999e+01) (45, 1,25257598685154540874e+01) (46, 2,42498555586440751597e+01) (47, -1,11783543442522126377e+00) (48, 1,15979527151483019498e-01) (49, 3,13924466599385931787e+00) (50, 1,26190646532819195080e+00) (51, -7,57632743115483342500e-02) (52, -9,29243462106474016338e-01) (53, 1,24061970791887493659e-01) (54, 5,92967427919999678920e-01) (55, 6,06651276375048786882e-01) (56, 9,70519713268249928362e-01) (57, 2,47929085309295832440e-01) (58, 2,34077679337611677113e+00) (59, 1,70540264159024146373e+00) (60, 1,45854973173015944887e+00) (61, -1,91850450714528553142e+00) (62, 3,33970457265302111960e-02) (63, 2,64308746295700691675e+00) (64, -2,27408218933418293517e+00) (65, -1,98920948391420160384e+00) (66, 7,10770274334034279917e-01) (67, -1,37804180030622913655e+00) (68, -2,72762143097323406238e+00) (69, -3,37782774122677098561e+00) (70, -2,82219498000586144215e+00) (71, 7,06310985784071032612e-01) (72, 3,17461936464129346191e-01) (73, -4,33710558429374504197e-01) (74, 2,66944738341380816138e+00) (75, 1,66273481226181836234e+01) (76, 2,00606976220053248028e+01) (77, 4,06791386027588970364e+01) (78, 3,21152314606347655257e+00) (79, -1,85475738053502947622e+00) (80, -8,01231166731815491744e+00) (81, -4,17501396556284021244e+00) (82, -4,97926383864868071782e+00) (83, -4,67219437888207345111e+00) (84, -1,32822492653791290884e+00) (85, -4,82178306391936206676e-01) (86, 1,39280167387243936084e+00) (87, 5,14722457699685886912e-02) (88, -2,79081140419058904012e-01) (89, -2,27190708208637293097e+00) (90, -1,12008934932319714761e+00) (91, -1,65155180481611481014e+01) (92, -6,46478143980648756184e+00) (93, -2,36329085993996468318e+00) (94, -3,09719998620475811535e+00) (95, -9,07709857282041099324e+00) (96, -2,88828123043852746932e+00) (97, -6,61990950276077860792e+00) (98, -1,10319202953767003805e+01) (99, -2,93345315533539263697e+01) (100, 4,44298885772677252248e+01) (0, -3,56327495713442443659e+00) (1, -1,14240508459873701952e+00) (2, -1,32402870267399008775e+00) (3, -2,02344908849484445001e-01) (4, 2,73780171704872987704e+00) (5, -8,01303540117143775490e-01) (6, 8,53550359893101462383e-01) (7, -6,56939592682032813542e+00) (8, 1,80818317540137618593e+00) (9, 3,32234189573164251374e-01) (10, 3,96620106340927414124e+00) (11, 7,89859357425187758039e-01) (12, -3,87584245681055339361e+00) (13, -6,79943405320834948213e+00) (14, -2,58588759165633375048e+00) (15, 9,12793303520151866337e+00) (16, 3,58495965217616063825e+00) (17, 5,54753836051388127260e+00) (18, 2,54376314873419939744e-01) (19, -1,93109283760166738908e+00) (20, 4,66389071278549049993e+00) (21, 7,13499569114959442118e+00) (22, 1,18735396513216606706e+01) (23, 3,62283527953242645570e-01) (24, 2,64767703321574288111e+00) (25, 8,84389954161733715665e-01) (26, 2,50480887396061824290e+00) (27, -1,71897687255126330186e+00) (28, -3,39997816035721145411e+00) (29, -5,12845445568694491278e-01) (30, -2,64359694415617552110e+00) (31, -6,41020690387637337437e+00) (32, -2,09477589644524142543e+00) (33, -5,62878591620468515799e+00) (34, -2,03456466339416719435e+00) (35, -2,77705666120129057717e+00) (36, 2,69277349123801279518e+00) (37, 3,96499737682397823679e-01) (38, -7,14970164864039969821e-01) (39, -6,39472110991103126487e-01) (40, 4,44502303241525675848e-01) (41, -4,97520941758321111337e+00) (42, -2,98621742199790496386e+00) (43, -6,09266562148472790028e+00) (44, -5,67748201403701302503e-01) (45, -1,43278314635635140029e+00) (46, -1,59022670652748643327e+00) (47, -4,63543334932937714510e-02) (48, 4,93258598091535882535e-01) (49, 3,72669261509119076337e+00) (50, 8,79483176131014232624e+00) (51, 3,53985481225547582440e+00) (52, 2,45636049078660745337e+00) (53, 1,78784684377439412328e-01) (54, 1,19428791771985176595e+00) (55, -1,33549026688428496001e+00) (56, 3,42700027292224191910e+01) (57, 3,82251623342202595524e+00) (58, 5,05527164638212411774e+01) (59, 8,58779570901401712035e+00) (60, 2,16879772298527795371e+00) (61, 3,07400776719794066594e+00) (62, 2,31417634363094171235e+00) (63, 2,00563218331462067567e+00) (64, 1,85834231819481399128e+00) (65, 3,08532074385261401162e+00) (66, 2,22260260886942351277e+00) (67, 2,87259255962118897898e+00) (68, -3,86665161316899708144e-01) (69, 1,04288119947407609267e+00) (70, 4,06934647731518239766e+00) (71, 3,72455235041807108942e+00) (72, -6,90775894499776499380e-01) (73, -7,54854439401292487410e-01) (74, -4,28735972935216125279e+00) (75, -6,21664202016726563649e-01) (76, 2,33101060456367248364e+00) (77, 1,33706544062097676395e+00) (78, 7,18588010717932990090e-01) (79, -7,26879150879033431032e-02) (80, -3,18772339451967701152e+00) (81, -1,06465559833368725862e+01) (82, -5,74409433617055320553e+00) (83, -1,49253387167131346125e+00) (84, -2,12723333107528622676e+00) (85, -2,27712211278515486157e+00) (86, -1,52774424391282637181e+00) (87, -2,04698092485397475926e+00) (88, 1,57357592687505865037e+00) (89, -2,39051275686973552226e+00) (90, -1,51660127055599214252e+00) (91, 1,98708417815126958672e+00) (92, 3,38168790445777078801e+00) (93, -6,67667819277144403145e+00) (94, -6,24035071354459081050e+00) (95, -2,83523047767102465144e+00) (96, -5,57035060613594623646e+00) (97, -5,06267985658728392195e+00) (98, -1,90600374095867124424e+01) (99, -7,48469351461791347901e+01) (100, 1,70748102240366939064e+00) (0, 3,89724093035246497152e+01) (1, 1,36701147952097068483e+00) (2, -5,95234761276447521539e+00) (3, -2,77665612405666228923e+00) (4, 9,41199178134170977295e-01) (5, -2,68712487056592719270e+00) (6, 1,28635841823581631438e+00) (7, 2,96901893714214137887e+00) (8, -1,32659786011267355477e+00) (9, -5,75003874382261770393e+00) (10, 3,50689178282330704661e-01) (11, -9,84046464727852310261e+00) (12, 3,98169849777747364428e+00) (13, 2,66222560583539085144e+01) (14, 1,08452571503661481245e+01) (15, 8,81010852762046958730e+00) (16, 1,24112153336153987482e+01) (17, 5,13339010360019276646e+00) (18, 3,83401883549361821579e+00) (19, 1,19770343525630273973e+00) (20, 2,21058672409277034987e+00) (21, 4,99343860755694535225e-01) (22, 6,22325019834539538977e+00) (23, 7,65297172754137910999e+00) (24, 6,44044525427311320698e+00) (25, 5,22954804546340046301e+00) (26, 1,00274651339471585487e+01) (27, 1,56073120179110436112e+01) (28, 1,79382175827270384794e+00) (29, 8,50524275660998529958e-01) (30, 6,11626918990107082408e+00) (31, 4,31959811218846412295e-01) (32, -3,54244697595476276675e+00) (33, 3,02572033058646905346e+00) (34, 5,44908264824056232101e+00) (35, 8,49030021180336902376e+00) (36, 1,58029429176146951619e+00) (37, 2,94777628979192174441e+00) (38, -3,52388176500941163738e+00) (39, 1,98986300879913580175e+00) (40, 3,04658959972364917768e-01) (41, 2,77218327344856652061e+00) (42, 1,12848458444800261447e+01) (43, 9,73422050992901866096e+00) (44, 1,58745781135017760555e+00) (45, -3,39010472583849031825e-01) (46, -2,05133399059387633301e+00) (47, -1,74615755173512674503e+01) (48, -2,68072292754674634807e+00) (49, 8,56497143536720378920e-02) (50, -6,32468403296306935779e-01) (51, -7,98227432157183725003e-01) (52, 1,46912983686465903332e+00) (53, 6,68432188908657853865e-01) (54, 1,77935592913224560618e+00) (55, -3,11615600235766843085e+00) (56, 4,41393523510622376449e+00) (57, 1,16004188780492456523e+00) (58, 1,68546076910636632995e+00) (59, 6,06135613842370712945e+00) (60, -1,35228784032716209396e-01) (61, 3,53225953786199864393e-01) (62, 2,81478091223202531168e+00) (63, 1,13699529950461353245e+00) (64, 5,29199749540090302879e-01) (65, 4,67496908608352079728e-01) (66, 1,41995782717539631435e+00) (67, 2,55978129635062146008e+00) (68, 2,34357779418112777137e+00) (69, 1,97237329190645682697e-01) (70, 2,68147383119208093660e+00) (71, 2,57334232348114344546e+00) (72, 4,26530075793950691487e-01) (73, -1,33339485456935213925e+00) (74, -2,17829427177512346958e+00) (75, 7,51591388423534034757e+00) (76, 5,43517367281167729232e+00) (77, 4,61613429751938664225e+00) (78, -4,43968930839905795427e-01) (79, 8,81906637373211732545e-01) (80, 2,48365163392618377713e+01) (81, 4,73253504217943188337e+00) (82, -5,51484342934053572982e-01) (83, -2,13459210893431539091e+00) (84, -2,23454550178918776027e+00) (85, -7,39047569860047270929e-01) (86, -1,17832146504983370505e+00) (87, 1,16309050948601244713e+00) (88, 4,59975995770630063930e+00) (89, 1,64919001693652256257e+00) (90, -5,11488708670180258764e-01) (91, -5,94953850934026728936e+00) (92, 7,29771073320237384507e+00) (93, 5,36644917571845958548e-01) (94, 4,49520003000701073859e+00) (95, 2,25716689896168087870e+00) (96, 5,45976545156591885899e+00) (97, 8,16930660358689841871e+00) (98, 6,23946179059742345174e+00) (99, 3,63621487308763207125e+01) (100, 1,55332070510515158901e+01) (0, -4,12180747531866220612e+00) (1, 8,59598343545390997100e-01) (2, 2,50296907528475953697e+00) (3, -7,84062207411975298221e-01) (4, 1,32702412770289619459e+01) (5, -1,83620477405545790006e+00) (6, -2,60743056563567288109e+00) (7, -2,63331286039655443343e-01) (8, 2,18050386905116120317e+01) (9, 1,42119409588818701451e+00) (10, 3,02667141838500075579e+00) (11, 3,41998843140541408658e+00) (12, 1,80634834778177499892e+00) (13, 3,89881343726938034422e+00) (14, -2,16415141330100446737e+00) (15, 6,54840226884787823813e-01) (16, 4,71031069572348215502e+00) (17, 2,95910477090006329703e+00) (18, 7,17942137272407787663e+00) (19, 6,86582468201900830707e+00) (20, 5,35698228579888979795e+00) (21, 4,26745961476382618116e+00) (22, 8,78891076325970210803e+00) (23, 2,03603881897311156379e+00) (24, 1,66650922679534985171e+00) (25, -1,79080306335490280212e+00) (26, -2,24421808020396706951e+00) (27, -3,78376362193012560908e+00) (28, -2,77857636330874990804e+00) (29, -5,98013303220093117574e+00) (30, -6,64546007517316361657e+00) (31, 2,00821754221425763376e+00) (32, 1,31206049309690309101e+00) (33, -9,13015541352405435305e+00) (34, -3,55214268679155820152e+00) (35, -7,58746693076202127770e+00) (36, -8,92636941894924973440e+00) (37, -9,51732539557340162517e-01) (38, 1,68049198262450460994e+00) (39, 1,96784380336906239428e+00) (40, 1,45823217866717609326e+01) (41, 3,31404632115249881963e+01) (42, 2,04202691594868257496e+00) (43, 7,17636016616060068429e+00) (44, 1,04699535107012291490e+01) (45, -3,21351939410516562745e+00) (46, -4,52467113695686240504e+00) (47, 3,03876963007182865351e-01) (48, 3,52390003541185636848e+00) (49, 7,46511160136067175586e+00) (50, 1,44302487413204776345e+01) (51, -6,99236878207317280598e-01) (52, -3,85872197306275355189e+00) (53, 1,05143474483430154898e+00) (54, 1,99760299398955165628e+00) (55, 2,05927190326411402310e+00) (56, 2,22538729887205161129e-01) (57, 2,14889733760993983935e+00) (58, 2,47478554672437267570e+00) (59, 3,13901904005305798506e+00) (60, 2,89713212708564649134e+00) (61, 1,94961333019302540670e+00) (62, 2,79223995443368222524e+00) (63, 1,21167037831162502926e+01) (64, 1,52324387374833190023e+01) (65, 7,97521614057993222247e+00) (66, 8,34620553512120011419e+00) (67, 3,48494322153668349529e+02) (68, 7,86159131970857885108e+01) (69, 4,57352279274175099744e+00) (70, 2,83070296153038647446e+00) (71, 2,49946943462304771444e+00) (72, 2,78434308991892454088e+00) (73, 8,06694153068885633218e+00) (74, 3,93420757368517470809e+00) (75, 1,42832042893525068550e+00) (76, 1,89606969009736658904e+00) (77, -1,83755661954224169818e+00) (78, -1,88227231529926347653e-01) (79, -2,57537658630714427765e-01) (80, -4,05974140526448490363e+00) (81, -1,93660364290048447877e+00) (82, -2,71745567161191292627e+00) (83, 2,42794890704707055917e-01) (84, 1,23372478216736336520e+00) (85, 8,00219733041772851578e-01) (86, -2,77781316035635095218e+00) (87, -1,10395097856309365447e+00) (88, -1,31725528511653999786e+00) (89, -2,14888141435980228877e-01) (90, -3,15235393468027691455e+00) (91, -3,27344691035370738419e+00) (92, -1,68328297599808465179e+01) (93, -2,73019832820701691123e-01) (94, -8,61525287719390853169e-01) (95, -1,51272242619307539790e+00) (96, -1,91458066522080017080e+00) (97, -4,52308245235798445094e+00) (98, -8,45997255452942553688e+00) (99, -1,33803751596589766137e+01) (100, -4,54447301856595498037e+00) (0, 1,71218845824281622470e+01) (1, 5,08323790059581597234e+01) (2, 3,64509423027558332464e+00) (3, 8,12913722836344221356e-01) (4, 3,58298545812563096202e-01) (5, 3,17621454128464009159e+00) (6, 3,58239245454015442505e+00) (7, 8,76199508765412815592e+00) (8, 2,96210629186384855061e+00) (9, 5,31362794932976112428e-01) (10, 9,13142174756737812213e-02) (11, 7,14251262039625256506e+00) (12, 2,40659047885839516567e+00) (13, 3,09524230340480732693e+00) (14, 6,80804167246651559253e+00) (15, 1,34027473868682438507e+01) (16, 1,59675572034509656305e+01) (17, 1,03907243430619899982e+01) (18, 1,86297736679321417341e+01) (19, 3,03508826612217674779e+01) (20, 8,60793299383579757489e+00) (21, 4,16072471420024925237e+01) (22, 6,34311738385871315415e+00) (23, 3,84110112929846714280e+00) (24, 2,14703316970089863602e+00) (25, 6,83383550261149252947e+00) (26, 3,42750065320587449236e+00) (27, 7,07539002629124258448e+00) (28, 5,50329572338065897696e+00) (29, 4,95318789670295789307e+00) (30, 6,52804553540092591390e+00) (31, 5,34263223686377219934e+00) (32, 5,79111881071381517927e+00) (33, 3,19670146679102806786e+00) (34, 4,91056689160252535231e+00) (35, 4,00401678662443138990e+00) (36, 2,04551817411295155935e+00) (37, -2,80152736798329726753e+00) (38, -2,76112840027823436273e-01) (39, -6,62460857765568089661e+00) (40, 7,40709297228501095667e-01) (41, -6,15643582559023072598e-01) (42, -6,27671035340514027467e+00) (43, -2,36548913546620331871e+00) (44, -1,66290899942965211267e+01) (45, 1,28386547699508231091e+01) (46, 1,06291412621499259394e+00) (47, -2,20277534963567145354e+00) (48, -5,32333218244198569380e+00) (49, -1,64918886719260870954e+00) (50, -5,51164665610315185340e-01) (51, -1,70150685596199791050e+00) (52, -7,29428194361528792200e+00) (53, -5,94832247657486501424e+00) (54, -1,74845175676679731591e-01) (55, -2,94411909710157460029e-01) (56, 2,40009303986278066390e+00) (57, 6,40745919523962914610e+00) (58, 7,47658110186168900491e-01) (59, 8,64836899158168304069e-01) (60, 1,18703937045465335309e+00) (61, 4,44756026818119487576e-01) (62, 1,13271573431097127838e+00) (63, 1,24924286286732710849e+00) (64, 2,91667345913181463857e+00) (65, 5,39872098366851016493e+00) (66, 9,15930444577749547364e+00) (67, 2,35927638805284978218e+00) (68, 4,33610751985959164134e-01) (69, 5,78593366573283529597e-01) (70, 5,94457730231223502315e-01) (71, 5,80717632607723466265e-01) (72, 1,36865041680195220763e+00) (73, 2,03471906441844563318e+00) (74, 6,28947477156078260663e+00) (75, 1,33601660750601478611e+01) (76, 1,60238324084959486981e+01) (77, 2,07305447729274874291e+01) (78, 9,76876803552550825316e+01) (79, 2,53594966015010783167e+02) (80, -1,59773301954488311516e+00) (81, 3,38421515270818247245e+01) (82, 1,42282741080060077365e+02) (83, 4,02296877469521341197e+00) (84, 2,80735109664365145576e+00) (85, 2,15916311597092214214e+00) (86, 2,96217888278681940051e+00) (87, 1,60950463527635854177e+01) (88, 1,83698906289286121307e+01) (89, 7,35270484056354867164e+00) (90, -3,08410985027301243200e-01) (91, -1,39798927588468546723e+00) (92, 9,41993599656769986517e-01) (93, 1,26415356117202959396e+00) (94, -2,35367793324265495158e+00) (95, -1,12367958756318529367e+02) (96, -2,46735089693357792839e+02) (97, -7,26576512064803381463e+01) (98, -9,72106297681610413974e+01) (99, 1,89483693221729936340e+01) (100, 5,70839114248060308654e+00) (0, 1,11626587198118105704e+01) (1, 5,30053190022719000751e+00) (2, -1,84320049552648690394e+00) (3, -2,74433527319342385198e+00) (4, -1,32376589726046378637e+00) (5, 1,45311277126424753803e+00) (6, 3,34264698145585059663e+00) (7, 4,52594906195267032700e+00) (8, 2,94628767196063812150e+00) (9, 3,00838028509304766800e+00) (10, -1,31806695890418468231e+00) (11, -5,08882997104053824700e+00) (12, -3,09283132574522667824e-01) (13, 2,93756143739513575497e+00) (14, 9,95958630130285982318e+00) (15, 6,34445169971408429177e+00) (16, 6,12096309233441893127e+00) (17, -9,52488503335617409107e+00) (18, 7,30779648749525057028e-01) (19, -2,50868892693255718385e+00) (20, -2,58575427326191231714e+00) (21, 6,29774759283618035255e-01) (22, 7,15888514370404793752e-01) (23, 1,07610672183959477088e+00) (24, 4,77618717949436000225e+00) (25, 3,16811134671465799428e+00) (26, 3,32118228837254214625e+00) (27, 3,14269222243861490185e+00) (28, 2,14073589004049003037e+00) (29, 3,53538968907375528161e+00) (30, 5,77037351932998721082e+00) (31, 1,18116876023932153572e+01) (32, 2,03304761713721005023e+00) (33, 2,97769640126011259085e+00) (34, 3,54583996267762879828e-01) (35, 3,03062995484862662821e+00) (36, 1,73305334023248813757e+00) (37, 3,14086574663160122967e+00) (38, 4,93871304765350238597e+00) (39, 1,65450155684112343302e+00) (40, 9,02451848361947384092e+00) (41, 6,85638379615285753488e+00) (42, 2,72883829746587736054e+00) (43, 1,71636525693190211683e+00) (44, 3,74167342221062160235e+00) (45, 2,22245027036871478643e+00) (46, 6,85039864703200063190e+00) (47, 5,18755160668602499641e+00) (48, 1,00449937544664251732e+01) (49, 4,46534148992627066832e+00) (50, 5,91937743399933413713e+00) (51, 3,72516278525538124811e+00) (52, 6,19986431744818400347e+00) (53, 4,04972097499742655913e+00) (54, 1,59267062541361670291e+00) (55, 1,63647527895416935451e+01) (56, 6,62664460576232414724e+01) (57, 6,22930508448080821893e+00) (58, 5,58977382121348842503e+00) (59, 6,04050578424419093437e+00) (60, 5,29575525174629913039e-01) (61, 6,87321314586791354273e-01) (62, 2,10554215656460819162e+00) (63, 1,65834004266670875793e+00) (64, 1,68309749069365377494e+00) (65, 3,65771710054543630619e+00) (66, 3,14510611636174797212e+00) (67, 1,37165613509173867079e+00) (68, 1,92545581936103760157e+00) (69, 1,57375238958062424466e+00) (70, 2,78671549461318646124e+00) (71, 4,60862865809123878336e+00) (72, 2,45626460738732177447e+00) (73, 3,46677752513409442869e+00) (74, 8,61098540761709885238e-01) (75, -3,03186326467331479506e+00) (76, -2,96433383714778884155e+01) (77, -1,15352291366940740147e+01) (78, -2,57944013651471681925e-01) (79, 6,16304508239422776938e+00) (80, -2,04042630604139496597e+00) (81, 7,04342379448361288752e+00) (82, -4,19271313448941995716e+00) (83, -1,11747673635178923490e+00) (84, -1,01735736903089657446e+00) (85, -1,55713026577066626643e+00) (86, 1,36135938573583703537e+00) (87, 8,48593561082151204289e+00) (88, 3,06444795243140344354e+00) (89, 4,63286537050895574907e+00) (90, 1,02089651624553301446e+01) (91, -7,35774251401491152791e+00) (92, 2,11498983477052782121e+00) (93, 2,07204960697018147897e+00) (94, -5,70816215825686246177e+00) (95, -8,00404588832594932057e+00) (96, -9,68783227815491976287e-01) (97, -9,16663578604850748377e+00) (98, -9,46708402543930382933e+00) (99, 1,70513457418959712975e+00) (100, -2,78407495834303091442e+01) (0, 2,17031155768478463131e+01) (1, 1,80473479819458333395e+01) (2, 5,65508123981563137761e+00) (3, 2,00290444676556855796e+00) (4, 3,84490062670212306983e+00) (5, -8,13697169505336465045e-02) (6, 1,01212444941101793461e+01) (7, 1,02342232031710924645e+01) (8, 2,44591794339993873209e+00) (9, 7,79230832962377162332e-01) (10, -5,30624445441146086466e+00) (11, 4,16558432141738599341e+00) (12, 1,18275089786765374988e+00) (13, 4,73327790308527784902e+00) (14, -4,77843140627408757837e+00) (15, 1,46669698329537467885e-01) (16, -1,09387234001542998918e+00) (17, 9,73348938709157396332e-01) (18, -1,67912385979829892335e+00) (19, -9,04657843655473925537e+00) (20, 1,57923112523038651489e-02) (21, 3,17513217307233874820e+00) (22, 3,27323650321601888891e+00) (23, 3,50292695658156505445e+00) (24, 3,56595459302239303767e+00) (25, 1,12112167924429906307e+00) (26, 1,02533791859771006294e+00) (27, 1,78335546019979074295e+00) (28, 2,34621936304521616634e+00) (29, 1,90640878963627691256e+00) (30, 2,81084736083327291212e+00) (31, 2,63087436262726948044e+00) (32, 4,34436933684126724842e+00) (33, 6,49291416088433326337e+00) (34, -5,50260801672601029821e+00) (35, 1,20084857761208994020e+01) (36, -4,73867307656549652251e+00) (37, 5,51440733306657815405e+00) (38, 3,57140969709785949249e+00) (39, 2,77246284163548839530e+00) (40, 8,16960614872973955869e+00) (41, 1,26501054738019735879e+00) (42, -2,70561820411329234659e+00) (43, 2,43335335953815379284e+00) (44, 4,32522171601371585581e+00) (45, -8,17752036920743941018e-01) (46, -3,91639443081905991306e+00) (47, -6,66205724946741573156e-01) (48, -5,60703382952086659685e-01) (49, -2,72796704223384356425e+00) (50, 4,86439453189644233078e+00) (51, -5,55510287624242093951e-02) (52, 2,93559860879695544433e-01) (53, 1,13565664471214322617e+00) (54, 2,70376504824921426451e-01) (55, 1,37142291918540704110e+00) (56, 4,52318864563172784443e+00) (57, 4,20478458905911178789e+00) (58, 1,00117241107929793031e+01) (59, -3,23579240598057360501e+00) (60, -3,50798633215775712557e+00) (61, -6,82607905127784242438e-01) (62, -4,91595495373197188815e-01) (63, -2,26378614205286626815e-01) (64, 2,66385749490101568504e-02) (65, -7,88770272738836042414e-01) (66, 1,28089333210989275713e+00) (67, 6,30563379296673942598e-01) (68, -1,00802378196571540414e+00) (69, -3,04632487610580637849e+00) (70, -1,03491536648675341858e+00) (71, -2,74937718354512394825e+00) (72, -1,82684863154085785908e+00) (73, -8,17183525468151872317e-01) (74, -5,23319622472766601828e-02) (75, 5,07858536201468258042e-01) (76, 2,52798754834625221122e+01) (77, 5,84399365237053487476e+01) (78, 5,09902837274938121936e+02) (79, 1,28266486764866158410e+02) (80, 2,48301236613456133284e+01) (81, -5,25842077539919117157e+01) (82, -1,83806193244370561501e+01) (83, 6,59401600429495998723e-02) (84, 1,13117706113011307067e-01) (85, 1,27690846367673849215e+00) (86, 7,79403034053699594885e-01) (87, -1,17680607822235661075e+00) (88, -8,35738874250934848931e+00) (89, -7,35574612147947703988e+00) (90, -7,44214002105529193187e+00) (91, -9,11310862899141049809e+00) (92, -9,06361668082770077781e-01) (93, 1,05248055361764603077e+00) (94, 7,78614968329253720469e+00) (95, 1,07135414798566532824e+01) (96, 2,89633426128165982760e+00) (97, 3,49283333896900316518e+01) (98, 3,27630627739940862853e+01) (99, 1,70608019115386504438e+01) (100, -2,00950915847275002335e+00) (0, 2,12577845898960049453e+00) (1, 1,53824505863286464802e+00) (2, 3,01104082905671432968e+00) (3, 3,22321417818660371779e+00) (4, 2,62877814953424049360e-01) (5, 2,25455663701932262910e+00) (6, 4,64044531689319228462e+00) (7, 4,55908719701959697090e+00) (8, 7,93804086859955315703e+00) (9, 1,65311665452652301056e+00) (10, 3,48323711491165832754e+00) (11, 1,97048582134480754213e+00) (12, 1,65438049298694389577e+00) (13, 3,12382865821189614763e+00) (14, 4,29708896725780142845e+00) (15, 2,86366937154554879186e+00) (16, 1,46431099642993899579e+02) (17, 5,06349315143685956286e+01) (18, 2,57009521476378033356e+00) (19, 1,55071787830250018558e+00) (20, 2,42760494048729702499e+00) (21, 2,33427937718587585891e+00) (22, 2,44776884871038857838e+00) (23, 3,72777647341921669621e+00) (24, 3,16957220416146645547e+00) (25, 2,63278810239369098767e+00) (26, -1,71243151946000993213e+00) (27, 3,12368282959958509792e+00) (28, 1,92778915565326269821e+00) (29, 4,68158773059212673928e+00) (30, 4,83704920202294008647e+00) (31, 6,98728795408714731252e+00) (32, 3,21537765752176696310e+00) (33, 1,68479372544905414699e+00) (34, 5,43818388460847934596e+00) (35, 4,62830840550507627285e+00) (36, 6,73448968749613197105e+00) (37, 5,81540671342209058992e+00) (38, 3,28992385582619562001e+00) (39, 1,54662219700183989346e+00) (40, -9,07848655070127019684e-01) (41, 2,90899232538705421192e-01) (42, 1,04560686249679228865e+01) (43, 5,11114630576516670857e+00) (44, 2,33157434806891181722e+01) (45, 5,38893440093949571690e+00) (46, 5,27627358601169493824e+00) (47, 3,09578140907359333767e+00) (48, 3,08855567009049769567e+00) (49, 2,54515589458150426339e+00) (50, 5,63843418091510439893e+00) (51, 1,39630081439072881722e+01) (52, 1,92407800350430129299e+01) (53, 1,54316421688092209052e+01) (54, 4,43357201863371059858e+01) (55, 1,67823706186438883492e+01) (56, 1,04338925401309374763e+01) (57, 1,20269782935501723387e+01) (58, 3,48893140788144906494e+00) (59, 1,64195798848303797790e+00) (60, 3,08889506734047003533e+00) (61, 5,30080529981667147865e+00) (62, 3,58250005088597145431e+00) (63, 3,35667805517423678552e+00) (64, 7,72234014454258588245e+00) (65, 7,51495022684388036538e+00) (66, 1,00684662938044038327e+01) (67, 3,83176614387805347661e+00) (68, 3,16679748948869033143e+00) (69, -1,33116857780545300161e-01) (70, -1,71923084181879914922e+00) (71, -7,40685254348877886166e-02) (72, 8,60585437050013668525e-01) (73, 2,11131949475602009869e+00) (74, 2,65606931611261476434e+00) (75, 2,40494851240510953971e+00) (76, -9,34245385001913203338e-02) (77, 3,25597623679902525851e+00) (78, 1,26426361559654480970e+01) (79, 1,39323322936945874773e+01) (80, 1,10538512672389632741e+01) (81, 5,61148885194303215229e+00) (82, 8,86796607858749297293e+00) (83, 1,39186506943083241339e+01) (84, 6,62733825923245234435e+00) (85, 6,11028172730467211693e+00) (86, -8,47100013488864544975e-01) (87, 6,37850599438586574053e+00) (88, 1,70192778588607289691e+01) (89, 8,02117795011674772354e+00) (90, 6,89143646334592574476e+00) (91, 2,43741850723078101737e+01) (92, 8,85713340924876924021e+00) (93, 1,07115670747485474124e+01) (94, 1,00277557087019086879e+01) (95, 4,97054516111388053901e+01) (96, 1,96028889345750023665e+01) (97, 1,66824792329188618112e+01) (98, 1,67100072470363123500e+01) (99, 4,45877936084049721899e+01) (100, 7,43615055115284384613e+00) (0, -5,35532203469044176813e+00) (1, 4,21633593055840627528e+00) (2, 8,62481781262494306972e-01) (3, -3,51606807066242055271e+00) (4, 2,66154943095323304192e+00) (5, -1,15560695746637881465e-01) (6, 1,20525719480375181902e+00) (7, -1,17147339145417817008e+01) (8, 3,85984373310268713553e+00) (9, 1,80195198924925725770e+00) (10, 4,39420328320730924077e+00) (11, 5,71297444340237703386e+00) (12, -5,19852466823736217294e-02) (13, -1,29415530220558028240e+00) (14, 4,14217356789464208333e+00) (15, 7,50640344406120885168e+00) (16, 8,14170679080537240679e+00) (17, 5,66520737439354249432e+00) (18, 5,14577890649483826735e+00) (19, 1,36775927242445721754e-01) (20, 7,81474378163490857041e-01) (21, 4,56818876223882686105e+00) (22, -5,16220591369295078721e+00) (23, 7,71783645718159827531e-01) (24, -3,23750265335273823553e+00) (25, -3,85480415834786827034e+00) (26, -1,38114184073042411960e+00) (27, 1,26226868878462905599e+00) (28, -1,98040048035387927783e+00) (29, -3,30212445947146226999e+00) (30, -3,12050982068846849415e-01) (31, 1,10925653752286845766e+00) (32, 2,73331956331612602185e+00) (33, 4,05637025529350037090e+00) (34, 2,34800234785680572713e+00) (35, 4,69449834211062277944e+00) (36, 1,60872268416391062118e+00) (37, -1,43560474380036739994e+00) (38, 3,92660546803572207963e-01) (39, -1,15579326268761173324e+00) (40, 1,53065737583175853764e+00) (41, 2,20333951944041084303e+00) (42, 6,61169937703452781363e-01) (43, -1,84206128414834102713e+00) (44, 1,83388839672707892881e+00) (45, 7,89090031841475525454e+00) (46, 2,00024188902408681656e+01) (47, 4,37088184364045151398e+00) (48, 1,29738910475502038366e+01) (49, 4,51629151688204544257e+00) (50, 5,72823858229074289738e+00) (51, 1,25655769232230807297e+00) (52, 5,34033243311028082978e-01) (53, 3,36092336732952556844e+00) (54, 2,50821770735989790779e+00) (55, 3,98334097642410478457e+00) (56, 2,87183049784195221221e+00) (57, 8,49754148668883857454e+00) (58, 1,43477699858568747970e+01) (59, 2,23244219781550334858e+01) (60, 3,10667790607956888493e+01) (61, 5,41618764861873724925e+00) (62, 4,95729366059675768952e+00) (63, 3,31651673819138714805e+00) (64, -4,02996753878436297924e+00) (65, -2,27044026939737797477e+00) (66, -3,09489293419437361266e+00) (67, -3,13883463489899350307e+00) (68, 5,16902756039658584086e+00) (69, 1,98397944433405690745e+01) (70, 8,28456537261109104975e+00) (71, 5,51888951387658899250e+00) (72, 1,41002091135015152901e+01) (73, 2,03131801204475976874e+01) (74, 2,68155118545981929756e+00) (75, 6,04340099067346159245e+00) (76, 5,67889306459466602917e+00) (77, 5,85889566390707017263e+00) (78, 8,75689260862381413375e-01) (79, 6,93454026471604034754e-01) (80, 9,68826582378012002295e-01) (81, 2,71107752804763124654e-01) (82, 2,63688586495672794285e+00) (83, -5,70298854728613946463e+00) (84, -1,76726413290018080637e+00) (85, 1,96413921768339427842e+00) (86, 7,19414108345384772925e-01) (87, 3,83067630483269416786e-01) (88, 1,37079204303213297855e-01) (89, -7,17206604369132638688e-01) (90, 4,02553277135524467667e+01) (91, 1,09415528518575754902e+02) (92, 2,43536347215588797610e+01) (93, 1,05788816119614228484e+01) (94, 6,26078310161973483616e+00) (95, 2,56835793981159721255e+00) (96, 5,62514988191246079197e+00) (97, 1,05668419246583145110e+01) (98, -6,50197106044704398187e+00) (99, -1,28139302764297209336e+01) (100, 2,51349630126002476782e-01) (0, 5,92614798084510354670e+01) (1, 5,46309753028467000036e+01) (2, 2,43296516005262937199e+01) (3, 2,48580065804036571819e+01) (4, 1,01645851358036498624e+01) (5, 4,31942117063695540935e+00) (6, -2,46570093754422225985e+00) (7, -1,94672938152439289894e+00) (8, 1,81578419565722937179e+00) (9, -7,89395566534349835131e-01) (10, 2,32465023823970939887e+00) (11, 1,28558264246373443740e+00) (12, 3,01561411624535180565e+00) (13, -6,94058517371930583373e-01) (14, -3,71616553178068409480e+00) (15, -1,66513322178200895429e+00) (16, -3,40506202899533638728e+00) (17, 7,70009716188179371699e-01) (18, 1,11410320906034021604e+00) (19, -7,08442209902756414586e-01) (20, -4,24687572229097254350e-01) (21, -6,50989753840976126398e-01) (22, -2,75130484269665229191e-02) (23, -1,02941055443205664588e+00) (24, 1,93166066622377508022e-01) (25, 6,79548214760290480996e-01) (26, 1,11929654477553786052e+00) (27, 2,74414373994308125049e-01) (28, 5,77688721796808524189e-01) (29, -4,96270476407134231156e-01) (30, 1,33791860894279801553e-01) (31, 1,67119051088156544971e+00) (32, -3,63413281724872794243e+00) (33, -6,01406208489320470711e-01) (34, 1,24720389718872737284e+00) (35, 4,49678761436140472796e+00) (36, 4,86359533429491630585e+00) (37, 5,35232779759642696149e+00) (38, 2,51381360874882409107e+00) (39, 1,52979461346039768976e+00) (40, 2,40503260858627970764e-01) (41, 1,19785314243203111495e+00) (42, 1,13057640922365809644e+00) (43, 1,51398613719183239290e+00) (44, 3,80449352299318110937e+00) (45, 2,17494756631010632830e+00) (46, 1,64710408782914696779e+00) (47, 6,25938003705976853119e-01) (48, 1,66769815758634498692e+00) (49, 1,20482034896313727756e+00) (50, 2,34424731050577683789e+00) (51, 1,15534367979692031980e+00) (52, -5,97076228544596743220e-01) (53, -3,91413249599859147665e+00) (54, -3,37693534117690496998e+00) (55, -7,20568308655975720001e+00) (56, -3,66555578756635336291e+00) (57, -9,09205805866907579293e-01) (58, 3,27173731506510945266e+00) (59, 3,23374481760552789922e+00) (60, 1,36917349097602847330e+00) (61, 2,00517648246678792390e+00) (62, 7,23060035832709391279e-01) (63, 4,15131344197980389765e+00) (64, 6,81789523807860664562e+00) (65, -4,57787708096636958288e+00) (66, -3,28739340418848300374e+01) (67, 1,44554013269942380759e+01) (68, 2,40653318230291652924e+01) (69, 9,36923042323033428147e+00) (70, 5,90663914642640008879e+00) (71, 7,50960158670518218571e+00) (72, 6,50588263520782361660e-01) (73, -3,12491590133219920844e+00) (74, 1,68652692038921747653e+00) (75, 9,76366369727172056514e-01) (76, 5,00997226423716135457e-01) (77, 3,46981355600103180681e-01) (78, -8,51149021900450364342e+00) (79, 4,94255680160912902465e+00) (80, 9,17541885526085465585e+00) (81, 1,17163796487257698686e+01) (82, 6,30262251847072985100e+00) (83, -2,61826268994881505847e+00) (84, 6,68597517278072484004e+00) (85, 6,21894193711532672353e+00) (86, 8,67644597606094833964e+01) (87, -7,25656306433037689985e-01) (88, 6,87658101740495020238e-01) (89, 3,44195208594529233892e+00) (90, 5,39575292733527422939e+00) (91, 3,24930182448451665422e+00) (92, 4,73582566666939097644e+00) (93, 4,98571444087138537782e+00) (94, 1,21295296023206145009e+01) (95, 1,28996681957559271581e+01) (96, 4,63421723189298706558e+00) (97, 9,87447769194018754035e+00) (98, 5,92012660679490565485e+00) (99, 8,41043239892532135116e+00) (100, 3,35421485829609764551e+01) (0, -2,78073873018298955984e+00) (1, -4,82162141311996439441e+00) (2, 1,85462124161961461333e+00) (3, 6,27487292250481143441e+00) (4, 2,14880117895852063015e+00) (5, 4,06482762577866463261e+00) (6, 3,99581859068475520047e+00) (7, 5,55875125987524754123e+00) (8, 1,89487258719306206345e+00) (9, 3,27653108878375398660e+00) (10, 1,33620071827731590197e+00) (11, 1,73262189388094101083e+00) (12, 8,49520200657759239071e-01) (13, 7,34324230403512245857e-01) (14, 1,18032727284109473231e+00) (15, 7,63014442749817667355e-01) (16, 1,53629212376275092744e+00) (17, 3,23601747035581377432e+00) (18, 2,58147006245958587911e+00) (19, 5,93676470065211403515e-01) (20, 4,37428629212084807421e+00) (21, 6,64764648753125797498e+00) (22, 2,63219561025432424728e+00) (23, 3,63557208887604543790e+00) (24, 3,12667522743286774300e+00) (25, 2,45650837468200400338e+00) (26, 2,97217748761653544065e+00) (27, 2,79067369951935573269e+00) (28, 2,46072593100714742675e+00) (29, 3,10544483692778072736e+00) (30, 1,26804197567642673583e+00) (31, 1,80090507577226510705e+00) (32, 3,05493826404407720077e+00) (33, -5,40433218734446385589e-01) (34, 6,89343796355368354511e-01) (35, -1,27169176826646718181e-01) (36, -3,72482659436469409897e+00) (37, 2,63745765630190587281e-01) (38, 2,84111775148506051636e-01) (39, -1,17695897787010594904e+00) (40, -2,75264244680823777500e+00) (41, -6,33483807655092351352e-02) (42, -8,90664438131444580193e-01) (43, 1,28756562517507355814e+00) (44, 1,71300055839270193303e+00) (45, 2,93454010869700532282e+00) (46, 1,99215866767760596545e+00) (47, 1,53894267741237236180e+01) (48, 9,08147480949447150067e+00) (49, 3,07899497305706804084e+00) (50, 1,94708994072274155229e+00) (51, 2,60986736946136854698e+00) (52, 2,75955703163337995321e+00) (53, 2,36694165463462047327e+00) (54, 2,25989353610679932771e+00) (55, 1,11068672140853008656e+00) (56, 1,56532856299866551808e+00) (57, 2,49326701627315916454e+00) (58, 3,29455723296973168601e+00) (59, -4,76461632505568027929e-02) (60, -4,07020725164908991900e+00) (61, -3,68744117903605195252e+00) (62, 3,36026659449885301001e-01) (63, -1,58262922901731695191e+00) (64, -1,06563044935195572194e+00) (65, 1,87792865581666656993e+00) (66, 2,45898279015249965340e+00) (67, 9,83579820330517717863e-01) (68, 5,67454568475895371193e-01) (69, 2,77488283387164003102e+00) (70, 2,65794623018977471673e+00) (71, 4,42141014078506700002e+00) (72, 4,90224580775899632101e+00) (73, 4,98585122972195282642e+00) (74, 2,73581841229379474356e+00) (75, 1,01666077964505152664e+00) (76, 1,08922838072608851867e+00) (77, 2,44924700696309649572e+00) (78, 2,47096111110253513488e+00) (79, 1,45509210951069389850e+00) (80, 2,18714264951160997086e+00) (81, 2,04796093741513063335e+00) (82, 2,47251374148201730208e+00) (83, 2,37490277144494887906e+00) (84, -1,77605412451817246122e+00) (85, 7,02320049313459149332e-01) (86, -1,50436102860273956949e+00) (87, 1,37312452655538863588e+00) (88, 1,32513573233234871473e+00) (89, 2,03880746988657968188e+00) (90, 1,98173689766441230020e+00) (91, 1,75737758111215258694e+00) (92, 2,42749164824197594115e+00) (93, 2,32588057561136496432e+00) (94, 1,17268287502582890802e+00) (95, 2,75775292416672268558e+00) (96, 2,97400845533662616660e+00) (97, 3,77268600059700531801e+00) (98, 4,94998940551445887337e+00) (99, 3,86516710773665206347e+00) (100, 9,30034292882104374200e+00) (0, 3,76305644135665584571e-01) (1, 8,38834071403212644391e-01) (2, 6,40441470817415203776e-01) (3, 3,82528314848347994470e+00) (4, 1,01902721442080035352e+00) (5, 4,18117774115298157511e+00) (6, 4,35839261441252734386e+00) (7, 1,17320339785055320903e+01) (8, 3,76549451573483384692e+00) (9, 2,82928807321090092231e+00) (10, 2,50125255986372652117e+00) (11, 4,32622258892953193143e-01) (12, -1,98943200127260433341e+00) (13, -1,37122819132370654671e+00) (14, 6,84461377648608704227e-01) (15, 6,77482902855285229471e-01) (16, -3,49929480011960003516e-01) (17, -7,27171729700845870248e-01) (18, -2,36988891371449383882e+00) (19, 3,89555862281663678459e+00) (20, -5,54311278268502793942e-01) (21, 2,99912978966292598226e-01) (22, -4,67690531604688597422e-01) (23, 2,20328969914503847161e-01) (24, 5,44096119302316250099e+00) (25, 3,04920342287806844794e-01) (26, -6,27299023367790531402e-02) (27, 3,31664556435457802408e+00) (28, 7,62863102381164726040e-01) (29, 1,21058133393575828585e+00) (30, 1,11886832595010599078e+00) (31, 6,85494729660762469603e-02) (32, 1,67878751678298598904e+00) (33, -7,00098261017981116083e-01) (34, -1,36838071443345893341e-01) (35, 2,56239771216783696062e+00) (36, -1,60662450030721637440e+00) (37, -2,74200564153633585818e+00) (38, -6,40965024776994596323e+00) (39, 2,10323695268636701172e+00) (40, -1,62387842154672661366e+01) (41, -2,13443841981384885287e+01) (42, -1,79963498708427600548e+01) (43, -6,47401020849318911132e+01) (44, -1,42420022906795736617e+02) (45, -3,46539976436514393754e+02) (46, -1,16606734421226878595e+01) (47, -1,09308823706956275146e+01) (48, -1,19624191108653143978e+00) (49, -5,44107405565572577189e+00) (50, -2,61697006562778033967e+00) (51, 3,26531967773944664657e+00) (52, 5,23622782832130706510e+00) (53, 1,16762731571370004247e+00) (54, -2,92607247852943208599e+00) (55, -3,77781767364837994805e+00) (56, -4,49285453728128025830e+00) (57, -4,09323454477711745625e+00) (58, -2,84158985704686228857e+00) (59, -2,82483730717922520981e+00) (60, -1,98132662790677605003e+00) (61, -6,62656951198052124319e-01) (62, -7,48824350663759186197e-01) (63, -1,51900092395600383455e+00) (64, -1,31365873718050307772e+00) (65, -3,09244832903009925218e+00) (66, -2,61367613763066675148e+00) (67, -2,68357753996205694591e+00) (68, -3,14722634846745030757e+00) (69, 1,84252175293665798606e+00) (70, -2,43923885658122774345e+00) (71, -2,11308178330608908979e+00) (72, -2,45627197986704981503e+00) (73, 1,33689053802160651152e+00) (74, -2,21183983656481197855e+00) (75, -3,07518551300990039543e-01) (76, -4,99248175899847546066e-01) (77, 2,73049437095387803609e+00) (78, 9,81209748532986480996e-01) (79, 4,69841410719249275019e+00) (80, 8,16221601019650022657e-01) (81, 7,55337706531538644050e-01) (82, -2,18241364373872581695e+00) (83, -2,24884598419702319561e+00) (84, 2,81525324538234977823e-01) (85, 4,56549483833522184995e+00) (86, 8,59526116876096857311e+00) (87, 4,76262821846036832341e+00) (88, -8,03699057319553822332e-01) (89, -1,01166096805732586006e+01) (90, -2,29071256483122231984e+00) (91, -1,69939407924672369887e+00) (92, -1,63539314888403253256e+00) (93, 5,79938715241308333503e+00) (94, 5,10990580305617214663e+00) (95, -1,47125910778227675380e+00) (96, 3,10001881770045562003e-01) (97, 1,04194247946663298698e+00) (98, -3,52779419103489588760e-01) (99, 2,40809825369586416599e+00) (100, -4,68141430533684221871e+00) (0, 1,75549699732910546857e+01) (1, 9,85379555034149090531e-01) (2, -2,06805642262781752549e+00) (3, -8,00674091690319222892e-01) (4, -8,68828627996951596835e-01) (5, -3,65104794520358433285e-01) (6, 5,18856758465581657802e-01) (7, -7,71771305498879844897e-01) (8, -1,68211186732995332527e+00) (9, 7,15245980816573467820e+00) (10, 7,81056970037085118719e+00) (11, 4,46245765539208694150e+00) (12, 4,19706034493451873857e+00) (13, 3,58434360447310229603e+00) (14, 7,83282423560216578551e+00) (15, 1,21185880978679740849e+01) (16, 1,46731067953550233796e+01) (17, 7,36166646919359113355e+00) (18, 5,21102527685682481717e+00) (19, 7,45628261227353750229e+00) (20, 6,86886520327463934166e+00) (21, -3,04611307426859534431e+00) (22, 4,61847640667394898628e+00) (23, 6,37126355620123430157e+00) (24, -2,39707288391986139686e+00) (25, 4,13456419877518843720e+00) (26, 4,75646595845722863771e+00) (27, 5,58018985032663472623e+00) (28, 2,75568232047130567963e+00) (29, 7,07373151789865417527e+00) (30, 5,53845168753986598631e+01) (31, 3,52735770693761230277e+00) (32, 1,20287230245350418301e+00) (33, 7,91082339102646159290e+00) (34, 1,34671444920662786160e+01) (35, 1,06630732683770137470e+01) (36, 1,67117913457427320623e+01) (37, 1,19967840184776584067e+01) (38, 9,04566672207357846958e+00) (39, 1,27412051895055338235e+01) (40, 1,02711058224397717709e+01) (41, 1,12711517134497736237e+01) (42, 1,41835866209431671336e+01) (43, 1,62131938874652838933e+01) (44, 1,71544977175489385957e+01) (45, 1,71487727077466836079e+01) (46, 7,80175243136618234985e+00) (47, 8,94062127696957276157e+00) (48, 5,09346950817515597976e+00) (49, 1,11361016735867384142e+01) (50, 7,64662651564661643988e+00) (51, 7,14964731494705585391e+00) (52, 6,42529983820985872711e+00) (53, 7,19894118154704987234e+00) (54, 7,30348661928876641269e+00) (55, 2,53019986697397047948e+00) (56, 1,21291949788283162093e+01) (57, 1,11776418435166604581e+01) (58, 6,42329353179357731563e+00) (59, 8,51805998924823093432e+00) (60, 5,08438782064526950677e+00) (61, 1,63858634219536924981e+00) (62, 7,52169088883536396395e+00) (63, 7,01802045765200066541e+00) (64, 2,43189844220269364428e+01) (65, 3,00458827457125421390e+00) (66, 1,70540488124204236975e+00) (67, 2,19328319541039684637e+00) (68, 7,16033976630584434453e-01) (69, 4,89031308629209604533e+00) (70, 7,83952822763318923904e+00) (71, 3,98451031136006594835e+00) (72, 2,64419811302645468842e+00) (73, 3,79403190933038070298e+00) (74, 2,73291347312314680806e+00) (75, 4,38654602168168050724e+00) (76, 7,97267861168536828842e+00) (77, 7,83619081840374942516e+00) (78, 1,30205054515610441968e+02) (79, 6,16599918418014908639e+02) (80, 2,32245939906659941698e+02) (81, 9,84502688249118129704e+00) (82, 5,41397523624241557627e+02) (83, 2,83785779153576411815e+00) (84, 4,32935965140740108836e+00) (85, 1,81390635272008005074e+01) (86, 2,14509903669487940192e+01) (87, 2,37235152042274037854e+01) (88, 1,02265238434433864967e+01) (89, 1,76910242792545844281e+01) (90, 6,30055901226181980235e+00) (91, 8,33363045734193619296e+00) (92, 6,25174847873863903658e+00) (93, 8,63460097016817940130e+00) (94, 5,77648559158595364948e+00) (95, 1,24189378135509649326e+01) (96, 3,07493801390391325867e+01) (97, 3,09841301427109776512e+01) (98, 2,90368994067893595457e+01) (99, 7,16333831807131531377e+01) (100, 1,80155210808788126542e+01) (0, -5,41113277358550193163e-01) (1, 3,94947993051011314591e+00) (2, 4,70674350705927402316e+00) (3, 1,75477432342698733692e+01) (4, 1,00453648338911190052e+01) (5, 3,61125225530366336102e+01) (6, 3,77745808099167135197e+01) (7, 5,44720562572157351866e+00) (8, 4,93358083349074227897e+00) (9, 2,43237560409302178144e+00) (10, 5,92808381130383743596e+00) (11, 8,32965992737175575655e+00) (12, 7,36918321944776000265e+00) (13, 9,57425659079743063273e+00) (14, 6,38741011302003691696e+00) (15, 1,31521209572215855843e+01) (16, 2,31065913714046530458e+02) (17, 2,77406934978600816066e+02) (18, 4,12074303491143211886e+02) (19, 2,88732577340516538555e+00) (20, 2,61701883903265253295e+00) (21, 2,70762655038462041190e+00) (22, 8,48221345046288277558e+00) (23, 7,58969711316475947882e+00) (24, 2,87318191166507368450e+01) (25, 6,18805373943790204549e+00) (26, 8,94401132929551856421e+00) (27, 9,23238229560744727564e+00) (28, 8,46858883864718059442e+00) (29, 1,49614615565295121513e+01) (30, 7,11387402683403013981e+00) (31, 6,64849827310579488682e+00) (32, 4,71965917821381619746e+00) (33, 2,81980246084941965634e+00) (34, 4,55180988635162808720e+00) (35, 3,97894361426927645198e+00) (36, 3,46828443941473762990e+00) (37, 4,57431521139092289729e+00) (38, 5,71408457910827305426e+00) (39, 1,94870630845960413069e+01) (40, 9,86370472642364148896e+01) (41, 9,20068463821509396894e+01) (42, 6,40867356959793443849e+00) (43, -1,16870844090480012767e+01) (44, -1,48359594734217754564e+01) (45, -6,71487795839609358239e+00) (46, -1,58374236367967236028e+00) (47, 2,50626314581843390172e+00) (48, 3,87866359618844214197e+00) (49, 2,45605261749390058057e+00) (50, 1,61021127183796619597e+00) (51, 2,97786265463449062452e+00) (52, 2,80987606680956192307e+00) (53, 2,34039734079936190270e+00) (54, 2,28892484806396279140e+00) (55, 9,28273815020514425633e-01) (56, 1,93094746929858263051e+00) (57, 4,45276136885394446807e+00) (58, 6,66046599435161912339e+00) (59, 4,03191705197177086006e+00) (60, 3,58845019479966120812e+00) (61, 3,03427127163835885781e+00) (62, 3,22940737519025367064e+00) (63, 3,50265540706677347416e+00) (64, 2,46803786481324287649e+01) (65, 1,33298049709906907268e+00) (66, 4,59367316528100655404e+00) (67, 4,79152792342898314892e-01) (68, 2,09946954967577115170e+00) (69, 1,32315091699150033655e+00) (70, 2,87761941885512184669e+00) (71, 2,13598772662348057594e+00) (72, 2,22876742148210205130e+00) (73, 2,80302422960515196237e+00) (74, 4,86265183767690256644e+00) (75, 1,22255522827384699447e+00) (76, 1,